{"learner":{"attributes":{"best_iteration":"131","best_score":"0.36260353203665585","scikit_learn":"{\"_estimator_type\": \"regressor\"}"},"feature_names":["day_of_week","week_of_year","month","year","is_weekend","lag_1","lag_7","lag_14","lag_28","rolling_mean_7","rolling_mean_14","rolling_std_7","discount_pct","is_promotion","holiday","stockout_lag_1","product_category","product_subcategory","location","store_id","avg_temperature","avg_humidity","avg_wind_level","precpt"],"feature_types":["int","int","int","int","int","float","float","float","float","float","float","float","float","int","int","float","int","int","int","int","float","float","float","float"],"gradient_booster":{"model":{"cats":{"enc":[],"feature_segments":[],"sorted_idx":[]},"gbtree_model_param":{"num_parallel_tree":"1","num_trees":"162"},"iteration_indptr":[0,1,2,3,4,5,6,7,8,9,10,11,12,13,14,15,16,17,18,19,20,21,22,23,24,25,26,27,28,29,30,31,32,33,34,35,36,37,38,39,40,41,42,43,44,45,46,47,48,49,50,51,52,53,54,55,56,57,58,59,60,61,62,63,64,65,66,67,68,69,70,71,72,73,74,75,76,77,78,79,80,81,82,83,84,85,86,87,88,89,90,91,92,93,94,95,96,97,98,99,100,101,102,103,104,105,106,107,108,109,110,111,112,113,114,115,116,117,118,119,120,121,122,123,124,125,126,127,128,129,130,131,132,133,134,135,136,137,138,139,140,141,142,143,144,145,146,147,148,149,150,151,152,153,154,155,156,157,158,159,160,161,162],"tree_info":[0,0,0,0,0,0,0,0,0,0,0,0,0,0,0,0,0,0,0,0,0,0,0,0,0,0,0,0,0,0,0,0,0,0,0,0,0,0,0,0,0,0,0,0,0,0,0,0,0,0,0,0,0,0,0,0,0,0,0,0,0,0,0,0,0,0,0,0,0,0,0,0,0,0,0,0,0,0,0,0,0,0,0,0,0,0,0,0,0,0,0,0,0,0,0,0,0,0,0,0,0,0,0,0,0,0,0,0,0,0,0,0,0,0,0,0,0,0,0,0,0,0,0,0,0,0,0,0,0,0,0,0,0,0,0,0,0,0,0,0,0,0,0,0,0,0,0,0,0,0,0,0,0,0,0,0,0,0,0,0,0,0],"trees":[{"base_weights":[-5.541117E-6,-2.1620798E-1,2.5521133E0,-3.9435327E-1,3.955008E-1,2.0800152E0,4.5681753E0,-5.043854E-1,-2.0500776E-1,2.1174355E-1,7.8013957E-1,1.5665762E0,2.8323848E0,3.964687E0,6.2551174E0,-5.7974243E-1,-4.3680456E-1,-2.772515E-1,-9.742909E-2,1.3036422E-1,4.191167E-1,6.402556E-1,1.0598156E0,1.3592751E0,1.999576E0,2.5587862E0,3.6656823E0,3.5288975E0,4.615883E0,5.516699E0,8.296857E0,-5.9014386E-1,-3.2986894E-1,-4.7133544E-1,-3.4986743E-1,-2.8226435E-1,8.4080297E-1,-1.5533654E-1,4.864306E-2,3.5591934E-2,2.658206E-1,3.0007753E-1,6.0947543E-1,5.208443E-1,8.0573916E-1,1.0136604E0,1.8617179E0,7.736531E-1,1.4691315E0,1.8966843E0,3.8792744E0,2.766923E0,1.6881489E0,3.460546E0,6.627062E0,3.0427926E0,3.9045172E0,4.304256E0,5.693044E0,4.7842484E0,6.5129905E0,6.852495E0,1.1143741E1,-3.4799572E-2,-2.8210675E-2,-2.6537215E-2,-5.6085573E-3,-2.3861E-2,-1.5395778E-3,-1.7759468E-2,2.1419099E-2,-1.624022E-2,-8.7620085E-3,-1.3475905E-2,1.0173311E-1,-7.974544E-3,3.4830287E-2,1.9447295E-3,6.8738535E-2,-1.5511449E-3,4.7838064E-3,1.1652649E-2,2.265065E-2,1.4408687E-2,6.540342E-2,2.177105E-2,3.4475308E-2,2.317831E-2,3.715833E-2,2.2592707E-2,4.3249678E-2,4.3458525E-2,6.0740203E-2,3.586587E-2,1.4975563E-1,5.397879E-2,2.4671832E-2,6.408986E-2,8.8803545E-2,8.3368294E-2,1.1373114E-1,4.4795427E-2,2.4586813E-1,1.233257E-1,1.6386496E-1,7.301086E-2,1.3479905E-1,1.5464945E-1,2.1751766E-1,2.3642102E-1,4.970529E-1,1.04078226E-1,1.6498661E-1,1.8530667E-1,2.6673648E-1,2.0072468E-1,2.4700783E-1,2.7682847E-1,5.4390764E-1,1.8639486E-1,2.723821E-1,2.9744554E-1,3.632966E-1,6.057974E-1,3.149264E-1,2.0333722E-1,5.7971007E-1],"categories":[],"categories_nodes":[],"categories_segments":[],"categories_sizes":[],"default_left":[0,0,0,0,0,0,0,0,0,0,0,0,0,0,0,0,0,0,0,0,0,0,0,0,0,0,0,0,0,0,0,0,0,0,0,0,0,0,0,0,0,0,0,0,0,0,0,0,0,0,0,0,0,0,0,0,0,0,0,0,0,0,0,0,0,0,0,0,0,0,0,0,0,0,0,0,0,0,0,0,0,0,0,0,0,0,0,0,0,0,0,0,0,0,0,0,0,0,0,0,0,0,0,0,0,0,0,0,0,0,0,0,0,0,0,0,0,0,0,0,0,0,0,0,0,0,0],"id":0,"left_children":[1,3,5,7,9,11,13,15,17,19,21,23,25,27,29,31,33,35,37,39,41,43,45,47,49,51,53,55,57,59,61,63,65,67,69,71,73,75,77,79,81,83,85,87,89,91,93,95,97,99,101,103,105,107,109,111,113,115,117,119,121,123,125,-1,-1,-1,-1,-1,-1,-1,-1,-1,-1,-1,-1,-1,-1,-1,-1,-1,-1,-1,-1,-1,-1,-1,-1,-1,-1,-1,-1,-1,-1,-1,-1,-1,-1,-1,-1,-1,-1,-1,-1,-1,-1,-1,-1,-1,-1,-1,-1,-1,-1,-1,-1,-1,-1,-1,-1,-1,-1,-1,-1,-1,-1,-1,-1],"loss_changes":[8.085E5,1.4720497E5,1.0890831E5,2.1795828E4,2.1534035E4,3.5814844E4,2.2079094E4,3.3693906E3,2.9883096E3,3.479332E3,3.8527422E3,4.9445625E3,8.5653125E3,4.522547E3,8.576531E3,8.128672E2,1.0470312E3,1.2894746E3,1.306677E3,1.9008408E3,1.3165088E3,1.2970625E3,1.2135117E3,2.3969297E3,3.443375E3,5.126703E3,5.623047E3,1.7384297E3,2.1268125E3,3.0359062E3,6.1614375E3,8.2390625E2,5.4674207E2,6.4721875E2,4.1089062E2,1.0425566E3,1.3619058E3,3.916333E2,5.6689154E2,3.486966E2,3.7376416E2,4.286079E2,3.1109766E2,4.8536328E2,5.766621E2,9.014453E2,2.3143965E3,5.04385E2,1.8024297E3,1.4624609E3,2.8603164E3,3.495625E3,1.2516934E3,2.829961E3,3.734541E3,1.0262383E3,1.5135156E3,8.968594E2,1.1040469E3,1.6797734E3,7.119297E2,2.865711E3,1.5754961E3,0E0,0E0,0E0,0E0,0E0,0E0,0E0,0E0,0E0,0E0,0E0,0E0,0E0,0E0,0E0,0E0,0E0,0E0,0E0,0E0,0E0,0E0,0E0,0E0,0E0,0E0,0E0,0E0,0E0,0E0,0E0,0E0,0E0,0E0,0E0,0E0,0E0,0E0,0E0,0E0,0E0,0E0,0E0,0E0,0E0,0E0,0E0,0E0,0E0,0E0,0E0,0E0,0E0,0E0,0E0,0E0,0E0,0E0,0E0,0E0,0E0,0E0,0E0,0E0],"parents":[2147483647,0,0,1,1,2,2,3,3,4,4,5,5,6,6,7,7,8,8,9,9,10,10,11,11,12,12,13,13,14,14,15,15,16,16,17,17,18,18,19,19,20,20,21,21,22,22,23,23,24,24,25,25,26,26,27,27,28,28,29,29,30,30,31,31,32,32,33,33,34,34,35,35,36,36,37,37,38,38,39,39,40,40,41,41,42,42,43,43,44,44,45,45,46,46,47,47,48,48,49,49,50,50,51,51,52,52,53,53,54,54,55,55,56,56,57,57,58,58,59,59,60,60,61,61,62,62],"right_children":[2,4,6,8,10,12,14,16,18,20,22,24,26,28,30,32,34,36,38,40,42,44,46,48,50,52,54,56,58,60,62,64,66,68,70,72,74,76,78,80,82,84,86,88,90,92,94,96,98,100,102,104,106,108,110,112,114,116,118,120,122,124,126,-1,-1,-1,-1,-1,-1,-1,-1,-1,-1,-1,-1,-1,-1,-1,-1,-1,-1,-1,-1,-1,-1,-1,-1,-1,-1,-1,-1,-1,-1,-1,-1,-1,-1,-1,-1,-1,-1,-1,-1,-1,-1,-1,-1,-1,-1,-1,-1,-1,-1,-1,-1,-1,-1,-1,-1,-1,-1,-1,-1,-1,-1,-1,-1],"split_conditions":[2.2571428E0,1.0285715E0,4.8E0,6.4285713E-1,1.5714285E0,3.357143E0,7.1E0,4.5714286E-1,8.2857144E-1,5E0,1E0,1E0,1E0,5.0285716E0,1.34E-1,2.9E-1,5E0,4.51E-1,5E0,1.2833333E0,1.3E0,1.8857143E0,7.7E1,1.2E0,7.7E1,6.8E1,7.7E1,1E0,5E0,6.25E0,5.5285716E0,2.857143E-1,5E0,3.88E-1,4.08E-1,5E0,5E0,4.51E-1,4.51E-1,1.0928571E0,2.38E-1,4.51E-1,9E-1,2.35E-1,8E-1,1.8857143E0,1.05E-1,3E0,2.7785714E0,2.8E0,1.05E-1,4.385714E0,5.5285716E0,4.385714E0,2.2394E0,3.7142856E0,7.7E1,6.3714285E0,2.9E1,1E0,5E0,6.8E-1,5E0,-3.4799572E-2,-2.8210675E-2,-2.6537215E-2,-5.6085573E-3,-2.3861E-2,-1.5395778E-3,-1.7759468E-2,2.1419099E-2,-1.624022E-2,-8.7620085E-3,-1.3475905E-2,1.0173311E-1,-7.974544E-3,3.4830287E-2,1.9447295E-3,6.8738535E-2,-1.5511449E-3,4.7838064E-3,1.1652649E-2,2.265065E-2,1.4408687E-2,6.540342E-2,2.177105E-2,3.4475308E-2,2.317831E-2,3.715833E-2,2.2592707E-2,4.3249678E-2,4.3458525E-2,6.0740203E-2,3.586587E-2,1.4975563E-1,5.397879E-2,2.4671832E-2,6.408986E-2,8.8803545E-2,8.3368294E-2,1.1373114E-1,4.4795427E-2,2.4586813E-1,1.233257E-1,1.6386496E-1,7.301086E-2,1.3479905E-1,1.5464945E-1,2.1751766E-1,2.3642102E-1,4.970529E-1,1.04078226E-1,1.6498661E-1,1.8530667E-1,2.6673648E-1,2.0072468E-1,2.4700783E-1,2.7682847E-1,5.4390764E-1,1.8639486E-1,2.723821E-1,2.9744554E-1,3.632966E-1,6.057974E-1,3.149264E-1,2.0333722E-1,5.7971007E-1],"split_indices":[9,9,6,9,9,9,6,9,9,0,14,14,14,9,12,12,0,12,0,9,9,9,17,6,17,17,17,14,0,10,9,9,16,12,12,0,16,12,12,10,12,12,7,12,6,9,12,0,10,9,12,9,9,9,23,10,17,9,16,14,0,23,0,0,0,0,0,0,0,0,0,0,0,0,0,0,0,0,0,0,0,0,0,0,0,0,0,0,0,0,0,0,0,0,0,0,0,0,0,0,0,0,0,0,0,0,0,0,0,0,0,0,0,0,0,0,0,0,0,0,0,0,0,0,0,0,0],"split_type":[0,0,0,0,0,0,0,0,0,0,0,0,0,0,0,0,0,0,0,0,0,0,0,0,0,0,0,0,0,0,0,0,0,0,0,0,0,0,0,0,0,0,0,0,0,0,0,0,0,0,0,0,0,0,0,0,0,0,0,0,0,0,0,0,0,0,0,0,0,0,0,0,0,0,0,0,0,0,0,0,0,0,0,0,0,0,0,0,0,0,0,0,0,0,0,0,0,0,0,0,0,0,0,0,0,0,0,0,0,0,0,0,0,0,0,0,0,0,0,0,0,0,0,0,0,0,0],"sum_hessian":[1.465271E6,1.350836E6,1.14435E5,1.046166E6,3.0467E5,9.2724E4,2.1711E4,6.61661E5,3.84505E5,2.06174E5,9.8496E4,5.5115E4,3.7609E4,1.5993E4,5.718E3,3.12829E5,3.48832E5,2.30029E5,1.54476E5,1.48069E5,5.8105E4,6.5659E4,3.2837E4,3.7274E4,1.7841E4,2.8316E4,9.293E3,9.585E3,6.408E3,4.202E3,1.516E3,3.00326E5,1.2503E4,2.49663E5,9.9169E4,2.29003E5,1.026E3,1.10622E5,4.3854E4,8.7118E4,6.0951E4,3.5751E4,2.2354E4,3.8141E4,2.7518E4,3.1052E4,1.785E3,5.889E3,3.1385E4,1.6917E4,9.24E2,2.2851E4,5.465E3,8.693E3,6E2,4.182E3,5.403E3,4.974E3,1.434E3,2.425E3,1.777E3,1.008E3,5.08E2,5.9091E4,2.41235E5,6.502E3,6.001E3,2.46372E5,3.291E3,9.8496E4,6.73E2,1.63867E5,6.5136E4,5.32E2,4.94E2,1.10086E5,5.36E2,4.3535E4,3.19E2,4.1314E4,4.5804E4,5.1873E4,9.078E3,3.5335E4,4.16E2,7.043E3,1.5311E4,3.033E4,7.811E3,3.948E3,2.357E4,1.8074E4,1.2978E4,8.89E2,8.96E2,2.814E3,3.075E3,1.9493E4,1.1892E4,1.0532E4,6.385E3,2.39E2,6.85E2,1.4388E4,8.463E3,4.459E3,1.006E3,6.155E3,2.538E3,3.83E2,2.17E2,8.84E2,3.298E3,4.748E3,6.55E2,3.422E3,1.552E3,1.394E3,4E1,9.38E2,1.487E3,1.021E3,7.56E2,9.4E1,9.14E2,3.1E1,4.77E2],"tree_param":{"num_deleted":"0","num_feature":"24","num_nodes":"127","size_leaf_vector":"1"}},{"base_weights":[2.018412E-5,-2.0338431E-1,2.2681415E0,-3.350087E-1,3.9457053E-1,1.7624004E0,4.1424236E0,-4.0044114E-1,1.103019E-2,2.3699203E-1,9.268832E-1,1.4193169E0,2.6765735E0,3.6362088E0,6.046448E0,-4.676644E-1,-2.6413134E-1,-1.1652194E-2,2.2282143E0,1.1707973E-1,4.3664798E-1,8.164239E-1,1.8172662E0,1.155173E0,1.9735373E0,2.70634E-1,2.809622E0,3.2944372E0,4.321546E0,5.3358626E0,8.098304E0,-5.1714545E-1,-4.073016E-1,-3.0139178E-1,-3.577473E-2,-8.197847E-2,2.7978918E-1,1.7032202E0,4.0183597E0,1.6519602E-2,2.6772854E-1,3.626363E-1,6.667402E-1,7.1499246E-1,1.0943025E0,1.5991818E0,3.2528536E0,1.0293525E0,1.6296269E0,1.7775311E0,2.3124497E0,1.185057E0,-2.3919968E-1,2.4671302E0,3.6030266E0,3.0711641E0,3.8173356E0,4.1171684E0,5.285661E0,4.5654483E0,5.9435296E0,8.702618E0,3.8212936E0,-2.850833E-2,-2.3500472E-2,-2.2109292E-2,-1.5071257E-2,-1.6445553E-2,-8.56322E-3,-4.5838407E-3,9.148708E-3,-8.978012E-3,1.2956822E-3,9.3585765E-3,3.148112E-2,6.1937958E-2,1.9417761E-1,-9.979049E-3,2.1374284E-1,-1.6366573E-3,1.2793079E-2,1.0564155E-2,2.1359224E-2,1.6841495E-2,4.1152723E-2,2.9940942E-2,4.3999E-2,3.0552248E-2,4.347315E-2,5.1406737E-2,6.8689175E-2,6.876424E-2,9.6582904E-2,1.2606482E-1,2.4118514E-1,9.9729046E-2,4.851332E-2,7.686856E-2,1.1441248E-1,8.2027905E-2,1.0106426E-1,1.1092322E-1,1.4447042E-1,1.5953755E-2,1.13503315E-1,8.709856E-2,-1.807652E-2,1.3147575E-1,6.579099E-2,1.610273E-1,2.771938E-1,1.4203249E-1,1.7090374E-1,1.842436E-1,2.2452639E-1,1.922652E-1,2.3163913E-1,2.6831305E-1,9.5776886E-2,1.9330145E-1,2.567483E-1,3.2928348E-1,2.79452E-1,3.505096E-1,5.121011E-1,3.952639E-1,5.8266442E-2],"categories":[],"categories_nodes":[],"categories_segments":[],"categories_sizes":[],"default_left":[0,0,0,0,0,0,0,0,0,0,0,0,0,0,0,0,0,0,0,0,0,0,0,0,0,0,0,0,0,0,0,0,0,0,0,0,0,0,0,0,0,0,0,0,0,0,0,0,0,0,0,0,0,0,0,0,0,0,0,0,0,0,0,0,0,0,0,0,0,0,0,0,0,0,0,0,0,0,0,0,0,0,0,0,0,0,0,0,0,0,0,0,0,0,0,0,0,0,0,0,0,0,0,0,0,0,0,0,0,0,0,0,0,0,0,0,0,0,0,0,0,0,0,0,0,0,0],"id":1,"left_children":[1,3,5,7,9,11,13,15,17,19,21,23,25,27,29,31,33,35,37,39,41,43,45,47,49,51,53,55,57,59,61,63,65,67,69,71,73,75,77,79,81,83,85,87,89,91,93,95,97,99,101,103,105,107,109,111,113,115,117,119,121,123,125,-1,-1,-1,-1,-1,-1,-1,-1,-1,-1,-1,-1,-1,-1,-1,-1,-1,-1,-1,-1,-1,-1,-1,-1,-1,-1,-1,-1,-1,-1,-1,-1,-1,-1,-1,-1,-1,-1,-1,-1,-1,-1,-1,-1,-1,-1,-1,-1,-1,-1,-1,-1,-1,-1,-1,-1,-1,-1,-1,-1,-1,-1,-1,-1],"loss_changes":[6.764703E5,1.0590792E5,1.1438081E5,2.497107E4,2.0363246E4,2.9802438E4,2.4692938E4,8.498547E3,8.819964E3,4.484544E3,5.452082E3,1.0113984E4,8.30025E3,4.731E3,7.8067656E3,1.8550469E3,2.6064648E3,3.5581875E3,1.6622695E3,1.7729288E3,1.1967119E3,1.3896719E3,1.9105293E3,2.7921523E3,1.4774453E3,6.3432043E2,6.668453E3,1.5669531E3,1.3059297E3,1.8464219E3,3.5413203E3,8.528047E2,1.0333281E3,9.43041E2,5.255128E2,1.4724509E3,1.0933418E3,1.3876235E3,4.3577148E2,8.2735486E2,4.2156787E2,6.316289E2,2.4721387E2,5.798086E2,2.4250586E2,3.9291992E2,9.140664E2,2.1078945E3,5.924336E2,4.686211E2,4.365625E2,4.5686017E2,2.124507E2,3.2060078E3,5.4806406E3,7.4846875E2,3.4389453E2,7.62125E2,3.0889062E2,6.8479297E2,4.7172656E2,3.0832578E3,1.8673047E3,0E0,0E0,0E0,0E0,0E0,0E0,0E0,0E0,0E0,0E0,0E0,0E0,0E0,0E0,0E0,0E0,0E0,0E0,0E0,0E0,0E0,0E0,0E0,0E0,0E0,0E0,0E0,0E0,0E0,0E0,0E0,0E0,0E0,0E0,0E0,0E0,0E0,0E0,0E0,0E0,0E0,0E0,0E0,0E0,0E0,0E0,0E0,0E0,0E0,0E0,0E0,0E0,0E0,0E0,0E0,0E0,0E0,0E0,0E0,0E0,0E0,0E0,0E0,0E0],"parents":[2147483647,0,0,1,1,2,2,3,3,4,4,5,5,6,6,7,7,8,8,9,9,10,10,11,11,12,12,13,13,14,14,15,15,16,16,17,17,18,18,19,19,20,20,21,21,22,22,23,23,24,24,25,25,26,26,27,27,28,28,29,29,30,30,31,31,32,32,33,33,34,34,35,35,36,36,37,37,38,38,39,39,40,40,41,41,42,42,43,43,44,44,45,45,46,46,47,47,48,48,49,49,50,50,51,51,52,52,53,53,54,54,55,55,56,56,57,57,58,58,59,59,60,60,61,61,62,62],"right_children":[2,4,6,8,10,12,14,16,18,20,22,24,26,28,30,32,34,36,38,40,42,44,46,48,50,52,54,56,58,60,62,64,66,68,70,72,74,76,78,80,82,84,86,88,90,92,94,96,98,100,102,104,106,108,110,112,114,116,118,120,122,124,126,-1,-1,-1,-1,-1,-1,-1,-1,-1,-1,-1,-1,-1,-1,-1,-1,-1,-1,-1,-1,-1,-1,-1,-1,-1,-1,-1,-1,-1,-1,-1,-1,-1,-1,-1,-1,-1,-1,-1,-1,-1,-1,-1,-1,-1,-1,-1,-1,-1,-1,-1,-1,-1,-1,-1,-1,-1,-1,-1,-1,-1,-1,-1,-1],"split_conditions":[2.3E0,1.2E0,4.4E0,1E0,1.8E0,3.8E0,7.1E0,7E-1,4.1E0,1.6E0,3.2E0,2.7E0,2.6E1,5.4E0,1.31E-1,3E-3,4.231402E-1,1.4E0,3.9E0,1.1E0,1.6E0,2.2E0,4.5E0,2.5E0,3.2E0,1E0,1E0,5E0,6.8E0,6.1E0,2.6624E0,4.7E-1,2.8784916E-1,9E-1,8.263517E-1,8E-1,2E0,3.97E-1,2.6E1,5.533448E-1,1.5E0,9.844022E-1,2.3E0,2.2E0,3.2E0,2.7E0,5.9E0,1.4E1,1.3212548E0,3.4E0,5E0,3.14E-1,1.0564991E0,2.6E1,6.1E0,5.2E0,6.2E0,5.9E0,1.67E-1,1E0,7.185E1,6.2E0,2.006E1,-2.850833E-2,-2.3500472E-2,-2.2109292E-2,-1.5071257E-2,-1.6445553E-2,-8.56322E-3,-4.5838407E-3,9.148708E-3,-8.978012E-3,1.2956822E-3,9.3585765E-3,3.148112E-2,6.1937958E-2,1.9417761E-1,-9.979049E-3,2.1374284E-1,-1.6366573E-3,1.2793079E-2,1.0564155E-2,2.1359224E-2,1.6841495E-2,4.1152723E-2,2.9940942E-2,4.3999E-2,3.0552248E-2,4.347315E-2,5.1406737E-2,6.8689175E-2,6.876424E-2,9.6582904E-2,1.2606482E-1,2.4118514E-1,9.9729046E-2,4.851332E-2,7.686856E-2,1.1441248E-1,8.2027905E-2,1.0106426E-1,1.1092322E-1,1.4447042E-1,1.5953755E-2,1.13503315E-1,8.709856E-2,-1.807652E-2,1.3147575E-1,6.579099E-2,1.610273E-1,2.771938E-1,1.4203249E-1,1.7090374E-1,1.842436E-1,2.2452639E-1,1.922652E-1,2.3163913E-1,2.6831305E-1,9.5776886E-2,1.9330145E-1,2.567483E-1,3.2928348E-1,2.79452E-1,3.505096E-1,5.121011E-1,3.952639E-1,5.8266442E-2],"split_indices":[5,5,6,6,6,5,6,5,6,5,6,6,17,5,12,12,11,7,8,6,7,7,7,7,7,15,14,7,7,5,23,6,11,7,11,5,6,12,17,11,7,11,7,6,7,7,6,1,11,6,7,12,11,16,5,6,8,6,12,14,21,8,20,0,0,0,0,0,0,0,0,0,0,0,0,0,0,0,0,0,0,0,0,0,0,0,0,0,0,0,0,0,0,0,0,0,0,0,0,0,0,0,0,0,0,0,0,0,0,0,0,0,0,0,0,0,0,0,0,0,0,0,0,0,0,0,0],"split_type":[0,0,0,0,0,0,0,0,0,0,0,0,0,0,0,0,0,0,0,0,0,0,0,0,0,0,0,0,0,0,0,0,0,0,0,0,0,0,0,0,0,0,0,0,0,0,0,0,0,0,0,0,0,0,0,0,0,0,0,0,0,0,0,0,0,0,0,0,0,0,0,0,0,0,0,0,0,0,0,0,0,0,0,0,0,0,0,0,0,0,0,0,0,0,0,0,0,0,0,0,0,0,0,0,0,0,0,0,0,0,0,0,0,0,0,0,0,0,0,0,0,0,0,0,0,0,0],"sum_hessian":[1.466295E6,1.345621E6,1.20674E5,1.102856E6,2.42765E5,9.5033E4,2.5641E4,9.27479E5,1.75377E5,1.87316E5,5.5449E4,6.9102E4,2.5931E4,2.0258E4,5.383E3,6.21148E5,3.06331E5,1.73602E5,1.775E3,1.1703E5,7.0286E4,4.9331E4,6.118E3,4.68E4,2.2302E4,1.359E3,2.4572E4,1.3521E4,6.737E3,4.001E3,1.382E3,3.41337E5,2.79811E5,2.63359E5,4.2972E4,1.39855E5,3.3747E4,1.374E3,4.01E2,7.0183E4,4.6847E4,5.3182E4,1.7104E4,3.6142E4,1.3189E4,5.313E3,8.05E2,3.6993E4,9.807E3,1.4134E4,8.168E3,4.86E2,8.73E2,1.7166E4,7.406E3,9.48E3,4.041E3,5.563E3,1.174E3,1.768E3,2.233E3,1.21E3,1.72E2,1.60635E5,1.80702E5,2.10464E5,6.9347E4,2.17385E5,4.5974E4,3.4226E4,8.746E3,7.3436E4,6.6419E4,2.6684E4,7.063E3,1.134E3,2.4E2,2.3E1,3.78E2,5.8206E4,1.1977E4,3.4601E4,1.2246E4,5.0361E4,2.821E3,1.2975E4,4.129E3,2.1607E4,1.4535E4,1.0668E4,2.521E3,3.178E3,2.135E3,5.51E2,2.54E2,2.132E3,3.4861E4,8.605E3,1.202E3,9.054E3,5.08E3,7.028E3,1.14E3,2.71E2,2.15E2,5E1,8.23E2,1.5043E4,2.123E3,6.189E3,1.217E3,5.701E3,3.779E3,3.382E3,6.59E2,3.648E3,1.915E3,1.146E3,2.8E1,7.97E2,9.71E2,7.88E2,1.445E3,5.79E2,6.31E2,6.7E1,1.05E2],"tree_param":{"num_deleted":"0","num_feature":"24","num_nodes":"127","size_leaf_vector":"1"}},{"base_weights":[2.1117018E-4,-1.9597934E-1,2.315894E0,-3.606495E-1,3.4842402E-1,1.7319442E0,3.6731138E0,-4.6263197E-1,-1.96911E-1,1.7635682E-1,6.8875223E-1,1.4922569E0,2.4930537E0,3.1320028E0,5.036885E0,-5.402724E-1,-4.1065395E-1,-2.7329853E-1,-1.11964986E-1,1.02201104E-1,3.6492145E-1,5.762894E-1,9.7621655E-1,9.9329174E-1,1.7873343E0,2.338656E0,3.9889405E0,2.78906E0,3.9294202E0,4.488876E0,8.527781E0,-5.4951E-1,-2.6584005E-1,-4.4217986E-1,-3.3056676E-1,-2.7753434E-1,7.737088E-1,-1.6285792E-1,1.620306E-2,1.5386432E-2,2.181209E-1,2.581946E-1,5.2525496E-1,2.0607288E-1,6.3981855E-1,5.9059966E-1,1.0913231E0,2.7910656E-1,1.1754377E0,1.5173697E0,2.178748E0,2.0103495E0,2.608493E0,2.2238E0,4.355228E0,1.851526E0,3.0184715E0,3.4538572E0,4.9207025E0,4.0042996E0,5.5289073E0,7.0045724E0,1.0393072E1,-3.1800147E-2,-2.6109478E-2,-2.4263768E-2,2.5782057E-3,-2.2374E-2,-1.6581605E-3,-1.6774485E-2,1.9226966E-2,-1.5825111E-2,-9.001155E-3,-1.4075704E-2,1.0116265E-1,-8.3625E-3,3.434984E-2,3.4483327E-4,6.4939E-2,-5.465172E-3,2.581813E-3,-1.8572325E-3,1.30288E-2,1.2346133E-2,6.098935E-2,1.860306E-2,3.0986875E-2,-3.6154743E-3,1.9557841E-2,2.6135324E-2,4.039034E-2,2.279585E-3,4.1206613E-2,4.5271765E-2,6.273684E-2,6.99347E-3,3.8844805E-2,5.2527584E-2,8.05858E-2,6.65689E-2,9.564676E-2,9.7796634E-2,1.4102761E-1,8.070141E-2,1.1517912E-1,1.15771614E-1,1.5387233E-1,1.3326304E-1,3.6375444E-2,1.6805129E-1,2.538763E-1,7.521059E-2,1.20029055E-1,1.375347E-1,1.7122279E-1,1.6266006E-1,2.0164275E-1,2.545312E-1,1.8180735E-1,1.7020555E-1,2.1373871E-1,2.3237517E-1,3.0309138E-1,5.785026E-1,3.244885E-1,6.5510295E-2,5.297024E-1],"categories":[],"categories_nodes":[],"categories_segments":[],"categories_sizes":[],"default_left":[0,0,0,0,0,0,0,0,0,0,0,0,0,0,0,0,0,0,0,0,0,0,0,0,0,0,0,0,0,0,0,0,0,0,0,0,0,0,0,0,0,0,0,0,0,0,0,0,0,0,0,0,0,0,0,0,0,0,0,0,0,0,0,0,0,0,0,0,0,0,0,0,0,0,0,0,0,0,0,0,0,0,0,0,0,0,0,0,0,0,0,0,0,0,0,0,0,0,0,0,0,0,0,0,0,0,0,0,0,0,0,0,0,0,0,0,0,0,0,0,0,0,0,0,0,0,0],"id":2,"left_children":[1,3,5,7,9,11,13,15,17,19,21,23,25,27,29,31,33,35,37,39,41,43,45,47,49,51,53,55,57,59,61,63,65,67,69,71,73,75,77,79,81,83,85,87,89,91,93,95,97,99,101,103,105,107,109,111,113,115,117,119,121,123,125,-1,-1,-1,-1,-1,-1,-1,-1,-1,-1,-1,-1,-1,-1,-1,-1,-1,-1,-1,-1,-1,-1,-1,-1,-1,-1,-1,-1,-1,-1,-1,-1,-1,-1,-1,-1,-1,-1,-1,-1,-1,-1,-1,-1,-1,-1,-1,-1,-1,-1,-1,-1,-1,-1,-1,-1,-1,-1,-1,-1,-1,-1,-1,-1],"loss_changes":[6.659077E5,1.2113634E5,9.072606E4,1.732375E4,1.8376207E4,1.4598766E4,2.5397812E4,2.5796562E3,2.583628E3,2.9144565E3,3.4062383E3,8.961344E3,4.4179688E3,6.73225E3,1.8673156E4,6.497344E2,9.666797E2,9.299824E2,1.229729E3,1.5054921E3,1.0065737E3,1.7814258E3,1.3146309E3,2.9428652E3,4.0387969E3,1.53425E3,1.1489336E3,3.7037031E3,3.4776172E3,4.2394688E3,3.6946719E3,5.857031E2,5.8159973E2,5.956328E2,3.809131E2,7.9334863E2,1.1147423E3,5.038069E2,6.395786E2,3.8664072E2,6.942595E2,3.8255518E2,3.4005615E2,5.7173975E2,1.2715254E3,8.6722876E2,6.9202734E2,3.186517E2,9.8050977E2,1.6632656E3,2.2270625E3,9.078672E2,1.303293E3,2.0283276E2,1.0478906E3,6.43416E2,1.4966953E3,5.6928516E2,5.055586E2,9.224531E2,1.2330234E3,1.6476953E3,1.0704297E3,0E0,0E0,0E0,0E0,0E0,0E0,0E0,0E0,0E0,0E0,0E0,0E0,0E0,0E0,0E0,0E0,0E0,0E0,0E0,0E0,0E0,0E0,0E0,0E0,0E0,0E0,0E0,0E0,0E0,0E0,0E0,0E0,0E0,0E0,0E0,0E0,0E0,0E0,0E0,0E0,0E0,0E0,0E0,0E0,0E0,0E0,0E0,0E0,0E0,0E0,0E0,0E0,0E0,0E0,0E0,0E0,0E0,0E0,0E0,0E0,0E0,0E0,0E0,0E0],"parents":[2147483647,0,0,1,1,2,2,3,3,4,4,5,5,6,6,7,7,8,8,9,9,10,10,11,11,12,12,13,13,14,14,15,15,16,16,17,17,18,18,19,19,20,20,21,21,22,22,23,23,24,24,25,25,26,26,27,27,28,28,29,29,30,30,31,31,32,32,33,33,34,34,35,35,36,36,37,37,38,38,39,39,40,40,41,41,42,42,43,43,44,44,45,45,46,46,47,47,48,48,49,49,50,50,51,51,52,52,53,53,54,54,55,55,56,56,57,57,58,58,59,59,60,60,61,61,62,62],"right_children":[2,4,6,8,10,12,14,16,18,20,22,24,26,28,30,32,34,36,38,40,42,44,46,48,50,52,54,56,58,60,62,64,66,68,70,72,74,76,78,80,82,84,86,88,90,92,94,96,98,100,102,104,106,108,110,112,114,116,118,120,122,124,126,-1,-1,-1,-1,-1,-1,-1,-1,-1,-1,-1,-1,-1,-1,-1,-1,-1,-1,-1,-1,-1,-1,-1,-1,-1,-1,-1,-1,-1,-1,-1,-1,-1,-1,-1,-1,-1,-1,-1,-1,-1,-1,-1,-1,-1,-1,-1,-1,-1,-1,-1,-1,-1,-1,-1,-1,-1,-1,-1,-1,-1,-1,-1,-1],"split_conditions":[2.2571428E0,1.0142857E0,4.142857E0,6.2857145E-1,1.5428572E0,3.6E0,1E0,4.2857143E-1,7.8571427E-1,1E0,1E0,2.4E0,5.9E0,5.2E0,7.7E1,3.4E-1,1E0,4.51E-1,1E0,1.2485714E0,1.2614286E0,1.1E0,1.4E0,1.4E1,3.057143E0,3.3642857E0,1E0,3.1E0,6.25E0,5.5285716E0,5.5285716E0,2.857143E-1,5E0,3.88E-1,4.08E-1,1E0,5E0,4.51E-1,4.51E-1,8E-1,8E-1,4.51E-1,1.3E0,9E-1,1.8857143E0,8E-1,1.8142858E0,1.4E0,1E0,1E0,1E0,1E0,1E0,2.6E1,7.7E1,3.2E0,5.0285716E0,6.1E0,2.9E1,4.3E0,6.1E0,7.537E-1,1E0,-3.1800147E-2,-2.6109478E-2,-2.4263768E-2,2.5782057E-3,-2.2374E-2,-1.6581605E-3,-1.6774485E-2,1.9226966E-2,-1.5825111E-2,-9.001155E-3,-1.4075704E-2,1.0116265E-1,-8.3625E-3,3.434984E-2,3.4483327E-4,6.4939E-2,-5.465172E-3,2.581813E-3,-1.8572325E-3,1.30288E-2,1.2346133E-2,6.098935E-2,1.860306E-2,3.0986875E-2,-3.6154743E-3,1.9557841E-2,2.6135324E-2,4.039034E-2,2.279585E-3,4.1206613E-2,4.5271765E-2,6.273684E-2,6.99347E-3,3.8844805E-2,5.2527584E-2,8.05858E-2,6.65689E-2,9.564676E-2,9.7796634E-2,1.4102761E-1,8.070141E-2,1.1517912E-1,1.15771614E-1,1.5387233E-1,1.3326304E-1,3.6375444E-2,1.6805129E-1,2.538763E-1,7.521059E-2,1.20029055E-1,1.375347E-1,1.7122279E-1,1.6266006E-1,2.0164275E-1,2.545312E-1,1.8180735E-1,1.7020555E-1,2.1373871E-1,2.3237517E-1,3.0309138E-1,5.785026E-1,3.244885E-1,6.5510295E-2,5.297024E-1],"split_indices":[9,9,9,9,9,6,4,9,9,4,4,5,6,6,17,12,4,12,4,9,9,5,5,1,9,10,14,5,10,9,9,9,16,12,12,4,16,12,12,5,5,12,5,6,9,6,9,5,14,14,14,14,4,16,17,6,9,5,16,5,5,23,14,0,0,0,0,0,0,0,0,0,0,0,0,0,0,0,0,0,0,0,0,0,0,0,0,0,0,0,0,0,0,0,0,0,0,0,0,0,0,0,0,0,0,0,0,0,0,0,0,0,0,0,0,0,0,0,0,0,0,0,0,0,0,0,0],"split_type":[0,0,0,0,0,0,0,0,0,0,0,0,0,0,0,0,0,0,0,0,0,0,0,0,0,0,0,0,0,0,0,0,0,0,0,0,0,0,0,0,0,0,0,0,0,0,0,0,0,0,0,0,0,0,0,0,0,0,0,0,0,0,0,0,0,0,0,0,0,0,0,0,0,0,0,0,0,0,0,0,0,0,0,0,0,0,0,0,0,0,0,0,0,0,0,0,0,0,0,0,0,0,0,0,0,0,0,0,0,0,0,0,0,0,0,0,0,0,0,0,0,0,0,0,0,0,0],"sum_hessian":[1.465738E6,1.351257E6,1.14481E5,1.037451E6,3.13806E5,8.0044E4,3.4437E4,6.39281E5,3.9817E5,2.08428E5,1.05378E5,6.0876E4,1.9168E4,2.4657E4,9.78E3,2.56353E5,3.82928E5,2.09645E5,1.88525E5,1.49598E5,5.883E4,7.5747E4,2.9631E4,2.2624E4,3.8252E4,1.7377E4,1.791E3,1.7245E4,7.412E3,8.455E3,1.325E3,2.48004E5,8.349E3,2.74764E5,1.08164E5,2.08801E5,8.44E2,1.34942E5,5.3583E4,8.5538E4,6.406E4,3.5321E4,2.3509E4,1.1095E4,6.4652E4,6.813E3,2.2818E4,4.598E3,1.8026E4,2.2641E4,1.5611E4,7.843E3,9.534E3,3.09E2,1.482E3,3.392E3,1.3853E4,5.012E3,2.4E3,5.771E3,2.684E3,7.32E2,5.93E2,5.9527E4,1.88477E5,4.936E3,3.413E3,2.71249E5,3.515E3,1.07425E5,7.39E2,1.49182E5,5.9619E4,4.58E2,3.86E2,1.34249E5,6.93E2,5.3198E4,3.85E2,1.9266E4,6.6272E4,9.135E3,5.4925E4,3.4913E4,4.08E2,8.97E3,1.4539E4,4.431E3,6.664E3,3.8097E4,2.6555E4,2.044E3,4.769E3,1.0678E4,1.214E4,3.594E3,1.004E3,1.4017E4,4.009E3,1.5403E4,7.238E3,1.1591E4,4.02E3,3.338E3,4.505E3,5.871E3,3.663E3,2.38E2,7.1E1,6.26E2,8.56E2,2.08E3,1.312E3,8.352E3,5.501E3,3.727E3,1.285E3,2.117E3,2.83E2,1.797E3,3.974E3,1.015E3,1.669E3,7.2E1,6.6E2,1.3E1,5.8E2],"tree_param":{"num_deleted":"0","num_feature":"24","num_nodes":"127","size_leaf_vector":"1"}},{"base_weights":[-4.5694417E-4,-1.92048E-1,2.1328042E0,-3.4867525E-1,2.9868013E-1,1.5287961E0,3.3546643E0,-4.449642E-1,-2.0331408E-1,1.4076097E-1,6.0784173E-1,1.2070554E0,1.9646764E0,2.8702767E0,4.5793805E0,-5.21219E-1,-3.9949706E-1,-2.7042788E-1,-1.194788E-1,7.276109E-2,3.1431597E-1,5.045706E-1,8.708777E-1,5.320864E-1,1.3190072E0,1.6939789E0,2.6601052E0,2.5376494E0,3.692008E0,4.1200852E0,7.676962E0,-5.3137094E-1,-2.868049E-1,-4.2862105E-1,-3.2551768E-1,-3.0915496E-1,-1.7290151E-1,-1.2637874E-1,8.714768E-1,-1.7519295E-2,1.7245407E-1,2.0398068E-1,4.4419777E-1,1.742843E-1,5.6632406E-1,5.379277E-1,9.797218E-1,2.3446314E-3,8.315758E-1,1.1454673E0,1.7440298E0,8.454008E-1,1.8260823E0,2.47981E0,3.8975682E0,1.5817136E0,2.6910725E0,2.830691E0,4.1262326E0,3.6868708E0,5.2650537E0,6.704003E0,1.0737514E1,-3.137001E-2,-2.5451204E-2,-2.379083E-2,-4.180008E-3,-2.1680733E-2,-1.9552044E-3,-1.649247E-2,1.5275061E-2,-1.6712353E-2,-9.285572E-3,-9.568705E-3,6.4284215E-3,-8.485604E-3,-9.671724E-4,-1.3570979E-2,1.106805E-1,-1.9359173E-3,1.1994441E-2,-5.7178666E-3,9.787182E-3,9.124964E-3,8.102309E-2,1.5627233E-2,2.816732E-2,-7.864291E-3,1.4927447E-2,2.185917E-2,3.471218E-2,1.4647027E-3,3.6053162E-2,4.2024087E-2,5.7659816E-2,-1.2531944E-2,3.2646176E-3,3.2266133E-2,8.135539E-2,5.188335E-2,6.721503E-2,8.17345E-2,1.5758364E-1,1.6406296E-2,5.7408895E-2,8.259727E-2,1.0053042E-1,6.912146E-2,1.3008438E-1,7.6764956E-2,2.273473E-1,6.173532E-2,1.1390555E-1,1.2446108E-1,1.487877E-1,1.1558362E-1,1.7165276E-1,1.9409202E-1,2.5425646E-1,1.6232169E-1,2.0206001E-1,2.1765725E-1,2.9108346E-1,6.3435584E-1,3.1873512E-1,2.1557513E-1,5.4663664E-1],"categories":[],"categories_nodes":[],"categories_segments":[],"categories_sizes":[],"default_left":[0,0,0,0,0,0,0,0,0,0,0,0,0,0,0,0,0,0,0,0,0,0,0,0,0,0,0,0,0,0,0,0,0,0,0,0,0,0,0,0,0,0,0,0,0,0,0,0,0,0,0,0,0,0,0,0,0,0,0,0,0,0,0,0,0,0,0,0,0,0,0,0,0,0,0,0,0,0,0,0,0,0,0,0,0,0,0,0,0,0,0,0,0,0,0,0,0,0,0,0,0,0,0,0,0,0,0,0,0,0,0,0,0,0,0,0,0,0,0,0,0,0,0,0,0,0,0],"id":3,"left_children":[1,3,5,7,9,11,13,15,17,19,21,23,25,27,29,31,33,35,37,39,41,43,45,47,49,51,53,55,57,59,61,63,65,67,69,71,73,75,77,79,81,83,85,87,89,91,93,95,97,99,101,103,105,107,109,111,113,115,117,119,121,123,125,-1,-1,-1,-1,-1,-1,-1,-1,-1,-1,-1,-1,-1,-1,-1,-1,-1,-1,-1,-1,-1,-1,-1,-1,-1,-1,-1,-1,-1,-1,-1,-1,-1,-1,-1,-1,-1,-1,-1,-1,-1,-1,-1,-1,-1,-1,-1,-1,-1,-1,-1,-1,-1,-1,-1,-1,-1,-1,-1,-1,-1,-1,-1,-1],"loss_changes":[5.9949156E5,1.0344778E5,8.920375E4,1.4280156E4,1.589849E4,1.1341953E4,2.3708062E4,2.1276172E3,2.2873633E3,2.543755E3,2.9902617E3,3.5161953E3,6.4620938E3,7.8231875E3,1.6089016E4,5.453867E2,8.282539E2,8.527207E2,1.2360232E3,1.3938558E3,8.6944336E2,1.6124551E3,1.1242773E3,1.0507507E3,2.9424375E3,2.7705781E3,2.1373125E3,2.9879531E3,3.0757266E3,4.8762812E3,4.281547E3,4.7119922E2,3.655282E2,5.365781E2,2.9697363E2,5.0051855E2,3.5742175E2,8.325762E2,1.9179998E3,4.4348947E2,4.916294E2,9.980178E2,4.3698486E2,5.1322345E2,1.1000195E3,7.1247437E2,5.640078E2,3.8124252E1,6.258589E2,6.062461E2,1.775918E3,5.216343E2,6.8421875E2,1.1201406E3,1.8675703E3,6.796201E2,1.0027422E3,8.5807227E2,1.2658906E3,1.1048984E3,1.3486797E3,2.1100352E3,3.931875E2,0E0,0E0,0E0,0E0,0E0,0E0,0E0,0E0,0E0,0E0,0E0,0E0,0E0,0E0,0E0,0E0,0E0,0E0,0E0,0E0,0E0,0E0,0E0,0E0,0E0,0E0,0E0,0E0,0E0,0E0,0E0,0E0,0E0,0E0,0E0,0E0,0E0,0E0,0E0,0E0,0E0,0E0,0E0,0E0,0E0,0E0,0E0,0E0,0E0,0E0,0E0,0E0,0E0,0E0,0E0,0E0,0E0,0E0,0E0,0E0,0E0,0E0,0E0,0E0],"parents":[2147483647,0,0,1,1,2,2,3,3,4,4,5,5,6,6,7,7,8,8,9,9,10,10,11,11,12,12,13,13,14,14,15,15,16,16,17,17,18,18,19,19,20,20,21,21,22,22,23,23,24,24,25,25,26,26,27,27,28,28,29,29,30,30,31,31,32,32,33,33,34,34,35,35,36,36,37,37,38,38,39,39,40,40,41,41,42,42,43,43,44,44,45,45,46,46,47,47,48,48,49,49,50,50,51,51,52,52,53,53,54,54,55,55,56,56,57,57,58,58,59,59,60,60,61,61,62,62],"right_children":[2,4,6,8,10,12,14,16,18,20,22,24,26,28,30,32,34,36,38,40,42,44,46,48,50,52,54,56,58,60,62,64,66,68,70,72,74,76,78,80,82,84,86,88,90,92,94,96,98,100,102,104,106,108,110,112,114,116,118,120,122,124,126,-1,-1,-1,-1,-1,-1,-1,-1,-1,-1,-1,-1,-1,-1,-1,-1,-1,-1,-1,-1,-1,-1,-1,-1,-1,-1,-1,-1,-1,-1,-1,-1,-1,-1,-1,-1,-1,-1,-1,-1,-1,-1,-1,-1,-1,-1,-1,-1,-1,-1,-1,-1,-1,-1,-1,-1,-1,-1,-1,-1,-1,-1,-1,-1],"split_conditions":[2.1857142E0,9.8571426E-1,3.9166667E0,6.1E-1,1.5E0,2.9166667E0,5E0,4.1428572E-1,7.6428574E-1,5E0,5E0,1.5E0,5E0,5.5285716E0,2.9E1,2.9E-1,5E0,5E0,4.08E-1,1.1642857E0,1.3E0,1.1E0,1.4E0,4E0,5E0,1.8E0,2.9E1,2.6E0,4.9E0,5.5285716E0,6.3714285E0,2.5714287E-1,5E0,3.88E-1,4.08E-1,1.73E-1,2.97E-1,5E0,5E0,2.81E-1,1.608E1,3.97E-1,1.176923E0,1.608E1,1.7714286E0,4E0,1.7642857E0,7E-1,5E0,2.5615385E0,1.6131897E0,4E0,3.3642857E0,2E0,1.05E-1,3.2E0,4.6714287E0,3.9E0,6.8E0,4.6E0,6.1E0,6.59E1,1.77E1,-3.137001E-2,-2.5451204E-2,-2.379083E-2,-4.180008E-3,-2.1680733E-2,-1.9552044E-3,-1.649247E-2,1.5275061E-2,-1.6712353E-2,-9.285572E-3,-9.568705E-3,6.4284215E-3,-8.485604E-3,-9.671724E-4,-1.3570979E-2,1.106805E-1,-1.9359173E-3,1.1994441E-2,-5.7178666E-3,9.787182E-3,9.124964E-3,8.102309E-2,1.5627233E-2,2.816732E-2,-7.864291E-3,1.4927447E-2,2.185917E-2,3.471218E-2,1.4647027E-3,3.6053162E-2,4.2024087E-2,5.7659816E-2,-1.2531944E-2,3.2646176E-3,3.2266133E-2,8.135539E-2,5.188335E-2,6.721503E-2,8.17345E-2,1.5758364E-1,1.6406296E-2,5.7408895E-2,8.259727E-2,1.0053042E-1,6.912146E-2,1.3008438E-1,7.6764956E-2,2.273473E-1,6.173532E-2,1.1390555E-1,1.2446108E-1,1.487877E-1,1.1558362E-1,1.7165276E-1,1.9409202E-1,2.5425646E-1,1.6232169E-1,2.0206001E-1,2.1765725E-1,2.9108346E-1,6.3435584E-1,3.1873512E-1,2.1557513E-1,5.4663664E-1],"split_indices":[9,9,9,9,9,9,0,9,10,0,0,5,0,9,16,12,0,0,12,10,5,5,5,2,0,5,16,5,5,9,9,9,16,12,12,12,12,0,16,12,20,12,10,20,9,2,10,5,0,10,11,2,10,5,12,7,9,7,7,5,5,21,20,0,0,0,0,0,0,0,0,0,0,0,0,0,0,0,0,0,0,0,0,0,0,0,0,0,0,0,0,0,0,0,0,0,0,0,0,0,0,0,0,0,0,0,0,0,0,0,0,0,0,0,0,0,0,0,0,0,0,0,0,0,0,0,0],"split_type":[0,0,0,0,0,0,0,0,0,0,0,0,0,0,0,0,0,0,0,0,0,0,0,0,0,0,0,0,0,0,0,0,0,0,0,0,0,0,0,0,0,0,0,0,0,0,0,0,0,0,0,0,0,0,0,0,0,0,0,0,0,0,0,0,0,0,0,0,0,0,0,0,0,0,0,0,0,0,0,0,0,0,0,0,0,0,0,0,0,0,0,0,0,0,0,0,0,0,0,0,0,0,0,0,0,0,0,0,0,0,0,0,0,0,0,0,0,0,0,0,0,0,0,0,0,0,0],"sum_hessian":[1.466774E6,1.345898E6,1.20876E5,1.020259E6,3.25639E5,8.0891E4,3.9985E4,6.13721E5,4.06538E5,2.15542E5,1.10097E5,4.6541E4,3.435E4,2.8655E4,1.133E4,2.29241E5,3.8448E5,2.25785E5,1.80753E5,1.54866E5,6.0676E4,7.906E4,3.1037E4,6.622E3,3.9919E4,2.4728E4,9.622E3,2.0401E4,8.254E3,9.869E3,1.461E3,2.19724E5,9.517E3,2.75871E5,1.08609E5,1.61609E5,6.4176E4,1.79504E5,1.249E3,8.127E4,7.3596E4,3.2808E4,2.7868E4,1.2454E4,6.6606E4,7.648E3,2.3389E4,2.392E3,4.23E3,2.8348E4,1.1571E4,3.332E3,2.1396E4,8.401E3,1.221E3,2.823E3,1.7578E4,2.769E3,5.485E3,7.163E3,2.706E3,1.111E3,3.5E2,4.1474E4,1.7825E5,4.93E3,4.587E3,2.72379E5,3.492E3,1.07869E5,7.4E2,1.34307E5,2.7302E4,6.0471E4,3.705E3,1.27774E5,5.173E4,6.75E2,5.74E2,7.5087E4,6.183E3,5.527E3,6.8069E4,3.2319E4,4.89E2,1.3241E4,1.4627E4,3.395E3,9.059E3,3.3147E4,3.3459E4,2.025E3,5.623E3,1.2978E4,1.0411E4,4.76E2,1.916E3,3.429E3,8.01E2,1.8386E4,9.962E3,1.0739E4,8.32E2,1.231E3,2.101E3,1.1013E4,1.0383E4,8.41E2,7.56E3,2.64E2,9.57E2,1.886E3,9.37E2,1.0291E4,7.287E3,1.49E3,1.279E3,4.375E3,1.11E3,3.198E3,3.965E3,1.029E3,1.677E3,5.6E1,1.055E3,1.1E1,3.39E2],"tree_param":{"num_deleted":"0","num_feature":"24","num_nodes":"127","size_leaf_vector":"1"}},{"base_weights":[1.7398206E-4,-1.7246203E-1,2.150027E0,-3.177311E-1,3.5457224E-1,1.7494918E0,3.7469778E0,-4.0602183E-1,-1.4410275E-1,2.0347919E-1,6.871564E-1,1.300728E0,2.3259459E0,3.2576785E0,5.1085606E0,-4.6714365E-1,-3.379844E-1,-2.0031042E-1,-4.796264E-2,1.333742E-1,3.8285145E-1,5.64089E-1,9.3305933E-1,7.628713E-1,1.4803684E0,1.9090555E0,2.851044E0,2.8882766E0,3.800223E0,4.5315404E0,6.6689396E0,-5.3792876E-1,-4.4066688E-1,-3.4112948E-1,5.4259837E-1,-2.0488779E-1,7.463611E-1,-9.879484E-2,7.981856E-2,5.3022034E-2,2.5126368E-1,2.710911E-1,5.3213185E-1,2.1569316E-1,6.3215524E-1,8.840074E-1,1.7651536E0,4.743915E-1,1.2208486E0,1.2688423E0,1.7569741E0,1.6965505E0,2.4650884E0,2.5658176E0,3.700204E0,2.4648297E0,3.2255697E0,3.5343914E0,4.7303042E0,3.8786826E0,5.291664E0,5.526988E0,8.984364E0,-2.7543053E-2,-1.1760908E-2,-2.3325855E-2,-1.8682418E-2,-1.8565478E-2,-1.3268259E-2,-1.8584369E-2,9.238067E-2,-1.2089083E-2,-5.6049093E-3,-1.1248797E-2,9.1965854E-2,-5.160368E-3,2.6512638E-2,3.5748647E-3,5.547866E-2,-4.4968487E-3,4.4701654E-3,-8.424337E-4,1.4454024E-2,-6.012479E-7,1.5521916E-2,1.1236764E-2,2.8986959E-2,-5.826087E-3,1.8033734E-2,2.6586542E-2,3.905898E-2,3.0837268E-2,4.9595308E-2,2.8510904E-2,1.4279747E-1,1.9257283E-2,7.8100815E-2,5.5103403E-2,9.573872E-2,5.541071E-2,7.911795E-2,8.0949076E-2,1.0771209E-1,7.067967E-2,9.681865E-2,1.1711215E-1,1.987574E-1,1.3354053E-1,8.2804255E-2,1.7077945E-1,3.3623144E-1,9.1090225E-2,1.3389643E-1,1.535628E-1,2.1239603E-1,1.6424085E-1,2.0348392E-1,2.2823064E-1,4.8918507E-1,1.5209731E-1,2.1687351E-1,2.3982851E-1,2.9798886E-1,4.998394E-1,2.5271878E-1,4.9353194E-1,3.0919477E-1],"categories":[],"categories_nodes":[],"categories_segments":[],"categories_sizes":[],"default_left":[0,0,0,0,0,0,0,0,0,0,0,0,0,0,0,0,0,0,0,0,0,0,0,0,0,0,0,0,0,0,0,0,0,0,0,0,0,0,0,0,0,0,0,0,0,0,0,0,0,0,0,0,0,0,0,0,0,0,0,0,0,0,0,0,0,0,0,0,0,0,0,0,0,0,0,0,0,0,0,0,0,0,0,0,0,0,0,0,0,0,0,0,0,0,0,0,0,0,0,0,0,0,0,0,0,0,0,0,0,0,0,0,0,0,0,0,0,0,0,0,0,0,0,0,0,0,0],"id":4,"left_children":[1,3,5,7,9,11,13,15,17,19,21,23,25,27,29,31,33,35,37,39,41,43,45,47,49,51,53,55,57,59,61,63,65,67,69,71,73,75,77,79,81,83,85,87,89,91,93,95,97,99,101,103,105,107,109,111,113,115,117,119,121,123,125,-1,-1,-1,-1,-1,-1,-1,-1,-1,-1,-1,-1,-1,-1,-1,-1,-1,-1,-1,-1,-1,-1,-1,-1,-1,-1,-1,-1,-1,-1,-1,-1,-1,-1,-1,-1,-1,-1,-1,-1,-1,-1,-1,-1,-1,-1,-1,-1,-1,-1,-1,-1,-1,-1,-1,-1,-1,-1,-1,-1,-1,-1,-1,-1],"loss_changes":[5.4451775E5,1.0397753E5,6.974944E4,1.6320555E4,1.4746113E4,2.2552312E4,1.4551625E4,2.9347734E3,1.9393164E3,2.5373477E3,2.7736172E3,4.7358984E3,8.348969E3,3.2135469E3,5.1730156E3,6.965156E2,9.2516406E2,9.815254E2,8.600508E2,1.3743013E3,9.458496E2,1.4486934E3,1.2463418E3,1.6214233E3,2.1480469E3,2.5099062E3,4.0808281E3,1.35975E3,1.5938359E3,2.0746484E3,4.0698594E3,3.960371E2,4.6857422E2,7.608672E2,1.4193501E3,7.7154785E2,1.1575891E3,2.629843E2,3.2282117E2,4.4874255E2,5.9623755E2,3.459143E2,3.5511865E2,4.810661E2,7.644824E2,8.3203516E2,2.2155068E3,7.306935E2,3.8891357E2,1.0471875E3,8.6941016E2,1.0420938E3,1.0816328E3,1.2033594E3,3.630254E3,5.7749023E2,8.2735547E2,6.639492E2,1.1652461E3,8.6014453E2,6.157656E2,2.1591328E3,1.2122188E3,0E0,0E0,0E0,0E0,0E0,0E0,0E0,0E0,0E0,0E0,0E0,0E0,0E0,0E0,0E0,0E0,0E0,0E0,0E0,0E0,0E0,0E0,0E0,0E0,0E0,0E0,0E0,0E0,0E0,0E0,0E0,0E0,0E0,0E0,0E0,0E0,0E0,0E0,0E0,0E0,0E0,0E0,0E0,0E0,0E0,0E0,0E0,0E0,0E0,0E0,0E0,0E0,0E0,0E0,0E0,0E0,0E0,0E0,0E0,0E0,0E0,0E0,0E0,0E0],"parents":[2147483647,0,0,1,1,2,2,3,3,4,4,5,5,6,6,7,7,8,8,9,9,10,10,11,11,12,12,13,13,14,14,15,15,16,16,17,17,18,18,19,19,20,20,21,21,22,22,23,23,24,24,25,25,26,26,27,27,28,28,29,29,30,30,31,31,32,32,33,33,34,34,35,35,36,36,37,37,38,38,39,39,40,40,41,41,42,42,43,43,44,44,45,45,46,46,47,47,48,48,49,49,50,50,51,51,52,52,53,53,54,54,55,55,56,56,57,57,58,58,59,59,60,60,61,61,62,62],"right_children":[2,4,6,8,10,12,14,16,18,20,22,24,26,28,30,32,34,36,38,40,42,44,46,48,50,52,54,56,58,60,62,64,66,68,70,72,74,76,78,80,82,84,86,88,90,92,94,96,98,100,102,104,106,108,110,112,114,116,118,120,122,124,126,-1,-1,-1,-1,-1,-1,-1,-1,-1,-1,-1,-1,-1,-1,-1,-1,-1,-1,-1,-1,-1,-1,-1,-1,-1,-1,-1,-1,-1,-1,-1,-1,-1,-1,-1,-1,-1,-1,-1,-1,-1,-1,-1,-1,-1,-1,-1,-1,-1,-1,-1,-1,-1,-1,-1,-1,-1,-1,-1,-1,-1,-1,-1,-1],"split_conditions":[2.3285713E0,1.0571429E0,4.8E0,6.7142856E-1,1.6285714E0,3.3E0,7.1E0,4.857143E-1,8.7142855E-1,1E0,1E0,1.8E0,3.9166667E0,5.0285716E0,1.33E-1,3.2857144E-1,4.51E-1,4.51E-1,1E0,1.3285714E0,1.3142858E0,1.2E0,7.7E1,2.1E0,2.9166667E0,1E0,1E0,1E0,1E0,6.3714285E0,5.5285716E0,3.4E-1,1E0,1E0,5E0,1E0,5E0,4.08E-1,4.51E-1,8E-1,8E-1,7E-1,9E-1,1.611E1,1.9714285E0,1.6E0,1.05E-1,5.0285716E0,3.9E0,1E0,1E0,3.2E0,1.951068E0,2.9E1,2.6E1,3.9166667E0,7.7E1,6.3714285E0,2.9E1,1E0,1E0,6.8E-1,1E0,-2.7543053E-2,-1.1760908E-2,-2.3325855E-2,-1.8682418E-2,-1.8565478E-2,-1.3268259E-2,-1.8584369E-2,9.238067E-2,-1.2089083E-2,-5.6049093E-3,-1.1248797E-2,9.1965854E-2,-5.160368E-3,2.6512638E-2,3.5748647E-3,5.547866E-2,-4.4968487E-3,4.4701654E-3,-8.424337E-4,1.4454024E-2,-6.012479E-7,1.5521916E-2,1.1236764E-2,2.8986959E-2,-5.826087E-3,1.8033734E-2,2.6586542E-2,3.905898E-2,3.0837268E-2,4.9595308E-2,2.8510904E-2,1.4279747E-1,1.9257283E-2,7.8100815E-2,5.5103403E-2,9.573872E-2,5.541071E-2,7.911795E-2,8.0949076E-2,1.0771209E-1,7.067967E-2,9.681865E-2,1.1711215E-1,1.987574E-1,1.3354053E-1,8.2804255E-2,1.7077945E-1,3.3623144E-1,9.1090225E-2,1.3389643E-1,1.535628E-1,2.1239603E-1,1.6424085E-1,2.0348392E-1,2.2823064E-1,4.8918507E-1,1.5209731E-1,2.1687351E-1,2.3982851E-1,2.9798886E-1,4.998394E-1,2.5271878E-1,4.9353194E-1,3.0919477E-1],"split_indices":[9,9,6,9,9,5,6,9,9,4,14,5,9,9,12,9,12,12,4,9,9,5,17,6,9,4,14,4,4,9,9,12,4,4,16,4,16,12,12,5,5,5,5,20,9,5,12,9,7,14,14,9,11,16,16,9,17,9,16,14,14,23,13,0,0,0,0,0,0,0,0,0,0,0,0,0,0,0,0,0,0,0,0,0,0,0,0,0,0,0,0,0,0,0,0,0,0,0,0,0,0,0,0,0,0,0,0,0,0,0,0,0,0,0,0,0,0,0,0,0,0,0,0,0,0,0,0],"split_type":[0,0,0,0,0,0,0,0,0,0,0,0,0,0,0,0,0,0,0,0,0,0,0,0,0,0,0,0,0,0,0,0,0,0,0,0,0,0,0,0,0,0,0,0,0,0,0,0,0,0,0,0,0,0,0,0,0,0,0,0,0,0,0,0,0,0,0,0,0,0,0,0,0,0,0,0,0,0,0,0,0,0,0,0,0,0,0,0,0,0,0,0,0,0,0,0,0,0,0,0,0,0,0,0,0,0,0,0,0,0,0,0,0,0,0,0,0,0,0,0,0,0,0,0,0,0,0],"sum_hessian":[1.467139E6,1.358084E6,1.09055E5,1.064634E6,2.9345E5,8.7189E4,2.1866E4,7.05754E5,3.5888E5,2.01782E5,9.1668E4,4.9026E4,3.8163E4,1.6088E4,5.778E3,3.71768E5,3.33986E5,2.26473E5,1.32407E5,1.45081E5,5.6701E4,6.1095E4,3.0573E4,1.2276E4,3.675E4,2.1276E4,1.6887E4,9.575E3,6.513E3,4.221E3,1.557E3,1.01198E5,2.7057E5,3.32798E5,1.188E3,2.25384E5,1.089E3,9.4725E4,3.7682E4,8.6277E4,5.8804E4,3.2427E4,2.4274E4,9.986E3,5.1109E4,2.8873E4,1.7E3,7.533E3,4.743E3,2.0828E4,1.5922E4,1.5396E4,5.88E3,1.2644E4,4.243E3,4.249E3,5.326E3,5.069E3,1.444E3,2.274E3,1.947E3,1.045E3,5.12E2,9.7051E4,4.147E3,1.95252E5,7.5318E4,2.37992E5,9.4806E4,6.99E2,4.89E2,1.61263E5,6.4121E4,5.77E2,5.12E2,9.4066E4,6.59E2,3.7381E4,3.01E2,1.7502E4,6.8775E4,7.269E3,5.1535E4,4.11E3,2.8317E4,3.256E3,2.1018E4,3.034E3,6.952E3,3.0536E4,2.0573E4,8.306E3,2.0567E4,8.12E2,8.88E2,6.963E3,5.7E2,4.052E3,6.91E2,1.3775E4,7.053E3,1.1821E4,4.101E3,7.066E3,8.33E3,5.44E3,4.4E2,1.1334E4,1.31E3,3.88E3,3.63E2,1.06E3,3.189E3,4.631E3,6.95E2,3.462E3,1.607E3,1.4E3,4.4E1,8.08E2,1.466E3,1.123E3,8.24E2,9.8E1,9.47E2,3.87E2,1.25E2],"tree_param":{"num_deleted":"0","num_feature":"24","num_nodes":"127","size_leaf_vector":"1"}},{"base_weights":[1.5655966E-4,-1.6360848E-1,2.0390377E0,-2.991882E-1,3.461365E-1,1.5858083E0,3.3065245E0,-3.8199523E-1,-1.2553042E-1,2.0857638E-1,6.6547763E-1,1.2383142E0,2.0394478E0,2.8138425E0,4.536325E0,-4.4351977E-1,-3.175119E-1,-1.9011216E-1,-4.3967243E-2,1.3970482E-1,3.8484138E-1,5.493771E-1,8.995535E-1,1.0379074E0,1.6301967E0,1.7616775E0,2.7584677E0,2.4320788E0,3.3891108E0,4.0275683E0,7.6262155E0,-4.7997087E-1,-3.9431155E-1,-3.2055625E-1,5.376073E-1,-2.2855529E-1,-9.2195645E-2,-5.046687E-2,8.860658E-1,5.171577E-2,2.4796209E-1,2.8023967E-1,5.425776E-1,2.5191838E-1,6.2034285E-1,8.52645E-1,1.697646E0,4.4796765E-1,1.1517537E0,1.479675E0,3.3615224E0,9.886205E-1,1.893447E0,2.5604675E0,4.472378E0,2.0400999E0,2.7842252E0,2.9864895E0,4.2170515E0,3.7330232E0,5.317289E0,6.679793E0,9.666708E0,-2.76913E-2,-2.2516316E-2,-2.017307E-2,-5.576278E-3,-1.7486984E-2,-1.2365137E-2,-1.7491596E-2,9.021699E-2,-1.2822594E-2,-5.7665017E-3,-4.958286E-3,4.6603423E-2,-4.747583E-3,3.009619E-3,-1.1644616E-2,1.1077265E-1,-5.5739055E-3,4.5164116E-3,-3.4669351E-3,1.3801984E-2,1.310183E-2,7.7957354E-2,2.1124879E-2,3.3106826E-2,-2.1356193E-3,2.037453E-2,2.6282785E-2,3.7139554E-2,2.8128028E-2,4.6934765E-2,2.8016929E-2,1.39591E-1,8.08233E-3,3.967137E-2,5.9514847E-2,1.6777106E-2,4.1975763E-2,8.077397E-2,3.090609E-2,1.9344328E-1,2.9901126E-2,7.303519E-2,9.734594E-2,6.1682463E-2,9.617581E-2,1.3700317E-1,-1.8338474E-2,2.4012963E-1,7.3416285E-2,1.1727661E-1,1.2958942E-1,1.5850644E-1,1.5498875E-1,8.706228E-2,2.1951592E-1,1.5081204E-1,1.6324084E-1,2.0341907E-1,2.2805491E-1,3.0367213E-1,-1.00695295E-2,3.4702855E-1,4.778702E-2,4.917182E-1],"categories":[],"categories_nodes":[],"categories_segments":[],"categories_sizes":[],"default_left":[0,0,0,0,0,0,0,0,0,0,0,0,0,0,0,0,0,0,0,0,0,0,0,0,0,0,0,0,0,0,0,0,0,0,0,0,0,0,0,0,0,0,0,0,0,0,0,0,0,0,0,0,0,0,0,0,0,0,0,0,0,0,0,0,0,0,0,0,0,0,0,0,0,0,0,0,0,0,0,0,0,0,0,0,0,0,0,0,0,0,0,0,0,0,0,0,0,0,0,0,0,0,0,0,0,0,0,0,0,0,0,0,0,0,0,0,0,0,0,0,0,0,0,0,0,0,0],"id":5,"left_children":[1,3,5,7,9,11,13,15,17,19,21,23,25,27,29,31,33,35,37,39,41,43,45,47,49,51,53,55,57,59,61,63,65,67,69,71,73,75,77,79,81,83,85,87,89,91,93,95,97,99,101,103,105,107,109,111,113,115,117,119,121,123,125,-1,-1,-1,-1,-1,-1,-1,-1,-1,-1,-1,-1,-1,-1,-1,-1,-1,-1,-1,-1,-1,-1,-1,-1,-1,-1,-1,-1,-1,-1,-1,-1,-1,-1,-1,-1,-1,-1,-1,-1,-1,-1,-1,-1,-1,-1,-1,-1,-1,-1,-1,-1,-1,-1,-1,-1,-1,-1,-1,-1,-1,-1,-1,-1],"loss_changes":[4.8926934E5,9.3741125E4,6.2580094E4,1.5406969E4,1.2518199E4,1.2648172E4,1.7373562E4,2.878039E3,1.8222168E3,2.4178594E3,2.331129E3,3.5673672E3,6.947078E3,4.4916875E3,1.2869141E4,6.6572656E2,9.223242E2,7.267251E2,9.2413544E2,1.3642036E3,9.2312695E2,1.2105312E3,1.063418E3,2.019127E3,4.0017812E3,2.5560625E3,3.2796172E3,1.6949062E3,2.7111875E3,2.6575547E3,2.1736562E3,4.6667578E2,4.0873828E2,7.544844E2,1.4136852E3,4.3786523E2,3.8869308E2,7.473236E2,1.5787837E3,4.978519E2,5.72095E2,7.829199E2,3.2003076E2,5.0646338E2,5.364824E2,6.7012305E2,1.9621182E3,4.8117926E2,7.925664E2,1.2285332E3,1.7081865E3,6.738274E2,7.5447656E2,9.895E2,1.6045156E3,1.0153965E3,4.7351953E2,7.706172E2,5.424883E2,8.8814844E2,7.2020703E2,1.4279883E3,5.2366797E2,0E0,0E0,0E0,0E0,0E0,0E0,0E0,0E0,0E0,0E0,0E0,0E0,0E0,0E0,0E0,0E0,0E0,0E0,0E0,0E0,0E0,0E0,0E0,0E0,0E0,0E0,0E0,0E0,0E0,0E0,0E0,0E0,0E0,0E0,0E0,0E0,0E0,0E0,0E0,0E0,0E0,0E0,0E0,0E0,0E0,0E0,0E0,0E0,0E0,0E0,0E0,0E0,0E0,0E0,0E0,0E0,0E0,0E0,0E0,0E0,0E0,0E0,0E0,0E0],"parents":[2147483647,0,0,1,1,2,2,3,3,4,4,5,5,6,6,7,7,8,8,9,9,10,10,11,11,12,12,13,13,14,14,15,15,16,16,17,17,18,18,19,19,20,20,21,21,22,22,23,23,24,24,25,25,26,26,27,27,28,28,29,29,30,30,31,31,32,32,33,33,34,34,35,35,36,36,37,37,38,38,39,39,40,40,41,41,42,42,43,43,44,44,45,45,46,46,47,47,48,48,49,49,50,50,51,51,52,52,53,53,54,54,55,55,56,56,57,57,58,58,59,59,60,60,61,61,62,62],"right_children":[2,4,6,8,10,12,14,16,18,20,22,24,26,28,30,32,34,36,38,40,42,44,46,48,50,52,54,56,58,60,62,64,66,68,70,72,74,76,78,80,82,84,86,88,90,92,94,96,98,100,102,104,106,108,110,112,114,116,118,120,122,124,126,-1,-1,-1,-1,-1,-1,-1,-1,-1,-1,-1,-1,-1,-1,-1,-1,-1,-1,-1,-1,-1,-1,-1,-1,-1,-1,-1,-1,-1,-1,-1,-1,-1,-1,-1,-1,-1,-1,-1,-1,-1,-1,-1,-1,-1,-1,-1,-1,-1,-1,-1,-1,-1,-1,-1,-1,-1,-1,-1,-1,-1,-1,-1,-1],"split_conditions":[2.3285713E0,1.0714285E0,4.385714E0,6.857143E-1,1.6571429E0,3.2E0,1E0,4.857143E-1,8.428571E-1,1E0,1E0,1E0,1E0,5.4E0,2.9E1,3E-3,4.51E-1,1E0,4.08E-1,1.2907143E0,1.5E0,1.3E0,7.7E1,1.6E0,7.7E1,2.1E0,7.7E1,3.6E0,6.3714285E0,7.3E0,6.3714285E0,3.2857144E-1,3.91E-1,1E0,5E0,1.67E-1,4.51E-1,1E0,5E0,8E-1,1.608E1,4.08E-1,1.3214285E0,8E-1,1.9714285E0,1.5E0,1.05E-1,1.7E0,7.7E1,1.9E0,1.05E-1,2.3E0,2.7E1,3E0,1E0,3.1E0,5.4615383E0,2.9E1,2.9E1,4.9E0,6.3714285E0,1E0,1E0,-2.76913E-2,-2.2516316E-2,-2.017307E-2,-5.576278E-3,-1.7486984E-2,-1.2365137E-2,-1.7491596E-2,9.021699E-2,-1.2822594E-2,-5.7665017E-3,-4.958286E-3,4.6603423E-2,-4.747583E-3,3.009619E-3,-1.1644616E-2,1.1077265E-1,-5.5739055E-3,4.5164116E-3,-3.4669351E-3,1.3801984E-2,1.310183E-2,7.7957354E-2,2.1124879E-2,3.3106826E-2,-2.1356193E-3,2.037453E-2,2.6282785E-2,3.7139554E-2,2.8128028E-2,4.6934765E-2,2.8016929E-2,1.39591E-1,8.08233E-3,3.967137E-2,5.9514847E-2,1.6777106E-2,4.1975763E-2,8.077397E-2,3.090609E-2,1.9344328E-1,2.9901126E-2,7.303519E-2,9.734594E-2,6.1682463E-2,9.617581E-2,1.3700317E-1,-1.8338474E-2,2.4012963E-1,7.3416285E-2,1.1727661E-1,1.2958942E-1,1.5850644E-1,1.5498875E-1,8.706228E-2,2.1951592E-1,1.5081204E-1,1.6324084E-1,2.0341907E-1,2.2805491E-1,3.0367213E-1,-1.00695295E-2,3.4702855E-1,4.778702E-2,4.917182E-1],"split_indices":[9,9,9,9,9,9,4,9,10,4,14,14,4,5,16,12,12,4,12,10,5,5,17,5,17,5,17,7,9,5,9,9,12,4,16,12,12,4,16,5,20,12,10,6,9,5,12,6,17,5,12,6,16,5,14,5,10,16,16,5,9,14,14,0,0,0,0,0,0,0,0,0,0,0,0,0,0,0,0,0,0,0,0,0,0,0,0,0,0,0,0,0,0,0,0,0,0,0,0,0,0,0,0,0,0,0,0,0,0,0,0,0,0,0,0,0,0,0,0,0,0,0,0,0,0,0,0],"split_type":[0,0,0,0,0,0,0,0,0,0,0,0,0,0,0,0,0,0,0,0,0,0,0,0,0,0,0,0,0,0,0,0,0,0,0,0,0,0,0,0,0,0,0,0,0,0,0,0,0,0,0,0,0,0,0,0,0,0,0,0,0,0,0,0,0,0,0,0,0,0,0,0,0,0,0,0,0,0,0,0,0,0,0,0,0,0,0,0,0,0,0,0,0,0,0,0,0,0,0,0,0,0,0,0,0,0,0,0,0,0,0,0,0,0,0,0,0,0,0,0,0,0,0,0,0,0,0],"sum_hessian":[1.465326E6,1.356381E6,1.08945E5,1.071412E6,2.84969E5,8.0251E4,2.8694E4,7.25475E5,3.45937E5,1.99174E5,8.5795E4,4.5444E4,3.4807E4,2.0489E4,8.205E3,3.71252E5,3.54223E5,1.93066E5,1.52871E5,1.43217E5,5.5957E4,5.7352E4,2.8443E4,3.007E4,1.5374E4,2.511E4,9.697E3,1.2319E4,8.17E3,7.047E3,1.158E3,2.13266E5,1.57986E5,3.52967E5,1.256E3,1.38635E5,5.4431E4,1.51811E5,1.06E3,7.9005E4,6.4212E4,3.3647E4,2.231E4,1.1048E4,4.6304E4,2.6866E4,1.577E3,4.865E3,2.5205E4,1.4146E4,1.228E3,3.658E3,2.1452E4,8.695E3,1.002E3,5.833E3,6.486E3,5.5E3,2.67E3,5.74E3,1.307E3,7.94E2,3.64E2,6.1079E4,1.52187E5,1.53034E5,4.952E3,2.52407E5,1.0056E5,7.39E2,5.17E2,1.11229E5,2.7406E4,5.4064E4,3.67E2,1.08282E5,4.3529E4,5.76E2,4.84E2,1.5116E4,6.3889E4,5.22E3,5.8992E4,3.3176E4,4.71E2,1.1133E4,1.1177E4,3.818E3,7.23E3,2.6115E4,2.0189E4,6.148E3,2.0718E4,7.74E2,8.03E2,2.661E3,2.204E3,2.4068E4,1.137E3,2.477E3,1.1669E4,1.92E2,1.036E3,2.003E3,1.655E3,1.9842E4,1.61E3,1.915E3,6.78E3,6.4E1,9.38E2,2.033E3,3.8E3,4.333E3,2.153E3,5.04E3,4.6E2,2.331E3,3.39E2,2.4E3,3.34E3,6.57E2,6.5E2,2.9E1,7.65E2,7E0,3.57E2],"tree_param":{"num_deleted":"0","num_feature":"24","num_nodes":"127","size_leaf_vector":"1"}},{"base_weights":[7.681321E-5,-1.6452424E-1,1.8333062E0,-2.9916942E-1,2.5656772E-1,1.3689923E0,2.9979212E0,-3.9041996E-1,-1.8482777E-1,1.09903306E-1,5.027898E-1,1.0764333E0,1.8061777E0,2.6956313E0,4.748049E0,-4.6082613E-1,-3.574131E-1,-2.41979E-1,-1.03326574E-1,5.210398E-2,2.5768906E-1,4.1561088E-1,7.254149E-1,8.9973915E-1,1.4271498E0,1.5621575E0,2.4345515E0,2.415946E0,3.4344277E0,4.1968694E0,7.0325217E0,-4.7098112E-1,-2.3951454E-1,-3.827296E-1,-2.929081E-1,-2.4662949E-1,4.1812223E-1,-1.445803E-1,9.242874E-5,-3.1657618E-2,1.21989235E-1,9.922828E-2,3.272551E-1,1.0247826E-1,4.633644E-1,5.730772E-1,9.1957396E-1,3.5678223E-1,9.977166E-1,1.2929004E0,3.1227868E0,8.99422E-1,1.6877209E0,2.2526088E0,4.033478E0,2.0116975E0,2.7922683E0,3.26804E0,6.120884E0,3.5966072E0,4.956783E0,1.0986779E1,6.4758244E0,-2.7654184E-2,-2.2531094E-2,5.319209E-3,-1.4935091E-2,-1.9518923E-2,-9.914326E-3,-1.4896303E-2,1.0487406E-2,-1.3847678E-2,-8.542262E-3,4.8002034E-2,-5.980335E-3,-7.405548E-3,2.7838616E-2,-3.8634686E-4,5.3904135E-2,-2.2975598E-3,1.7332077E-2,1.005308E-3,8.301127E-3,3.4702432E-3,8.435667E-2,1.0809834E-2,2.1374349E-2,-5.55882E-3,1.3980637E-2,1.7522112E-2,2.8953075E-2,1.267415E-2,3.5532504E-2,4.0245425E-2,5.751409E-2,5.24816E-3,3.2909263E-2,4.3276425E-2,5.7970714E-2,2.5177006E-2,6.878611E-2,2.957566E-2,1.8772006E-1,2.6694713E-2,6.550922E-2,7.5928174E-2,9.343273E-2,6.3524835E-2,1.1898845E-1,-1.8645456E-2,2.1772173E-1,8.468266E-2,1.2184576E-1,1.2361752E-1,1.6433601E-1,1.5539984E-1,2.4505226E-1,7.3794436E-1,2.8616855E-1,1.3695352E-1,2.0801476E-1,2.276049E-1,2.7601966E-1,6.269954E-1,2.5863367E-1,2.7763605E-1,4.212831E-1],"categories":[],"categories_nodes":[],"categories_segments":[],"categories_sizes":[],"default_left":[0,0,0,0,0,0,0,0,0,0,0,0,0,0,0,0,0,0,0,0,0,0,0,0,0,0,0,0,0,0,0,0,0,0,0,0,0,0,0,0,0,0,0,0,0,0,0,0,0,0,0,0,0,0,0,0,0,0,0,0,0,0,0,0,0,0,0,0,0,0,0,0,0,0,0,0,0,0,0,0,0,0,0,0,0,0,0,0,0,0,0,0,0,0,0,0,0,0,0,0,0,0,0,0,0,0,0,0,0,0,0,0,0,0,0,0,0,0,0,0,0,0,0,0,0,0,0],"id":6,"left_children":[1,3,5,7,9,11,13,15,17,19,21,23,25,27,29,31,33,35,37,39,41,43,45,47,49,51,53,55,57,59,61,63,65,67,69,71,73,75,77,79,81,83,85,87,89,91,93,95,97,99,101,103,105,107,109,111,113,115,117,119,121,123,125,-1,-1,-1,-1,-1,-1,-1,-1,-1,-1,-1,-1,-1,-1,-1,-1,-1,-1,-1,-1,-1,-1,-1,-1,-1,-1,-1,-1,-1,-1,-1,-1,-1,-1,-1,-1,-1,-1,-1,-1,-1,-1,-1,-1,-1,-1,-1,-1,-1,-1,-1,-1,-1,-1,-1,-1,-1,-1,-1,-1,-1,-1,-1,-1],"loss_changes":[4.4242412E5,7.628089E4,6.5317594E4,1.0636344E4,1.1771162E4,1.104475E4,1.8203312E4,1.3173828E3,2.1075146E3,1.7449546E3,2.3613281E3,3.205332E3,5.305297E3,6.0589844E3,6.3543984E3,4.065703E2,6.302461E2,8.165537E2,7.9570447E2,8.5962555E2,6.3307935E2,1.3075039E3,1.01221484E3,1.8302754E3,3.9418398E3,2.074039E3,2.8078242E3,3.235164E3,3.583211E3,1.8464453E3,2.0949531E3,2.8895703E2,1.626063E2,3.909961E2,2.744922E2,6.068828E2,5.4242E2,3.3021875E2,4.482985E2,3.611931E2,3.5915222E2,8.2971533E2,4.4418066E2,4.3798044E2,9.910488E2,8.435127E2,3.972627E2,3.9931152E2,6.22084E2,1.0495098E3,2.0298398E3,5.961267E2,6.3891406E2,1.0829766E3,1.3989102E3,1.3853086E3,1.7366406E3,1.9692109E3,1.5259453E3,1.0941016E3,3.8565234E2,1.0187412E3,1.5101328E3,0E0,0E0,0E0,0E0,0E0,0E0,0E0,0E0,0E0,0E0,0E0,0E0,0E0,0E0,0E0,0E0,0E0,0E0,0E0,0E0,0E0,0E0,0E0,0E0,0E0,0E0,0E0,0E0,0E0,0E0,0E0,0E0,0E0,0E0,0E0,0E0,0E0,0E0,0E0,0E0,0E0,0E0,0E0,0E0,0E0,0E0,0E0,0E0,0E0,0E0,0E0,0E0,0E0,0E0,0E0,0E0,0E0,0E0,0E0,0E0,0E0,0E0,0E0,0E0],"parents":[2147483647,0,0,1,1,2,2,3,3,4,4,5,5,6,6,7,7,8,8,9,9,10,10,11,11,12,12,13,13,14,14,15,15,16,16,17,17,18,18,19,19,20,20,21,21,22,22,23,23,24,24,25,25,26,26,27,27,28,28,29,29,30,30,31,31,32,32,33,33,34,34,35,35,36,36,37,37,38,38,39,39,40,40,41,41,42,42,43,43,44,44,45,45,46,46,47,47,48,48,49,49,50,50,51,51,52,52,53,53,54,54,55,55,56,56,57,57,58,58,59,59,60,60,61,61,62,62],"right_children":[2,4,6,8,10,12,14,16,18,20,22,24,26,28,30,32,34,36,38,40,42,44,46,48,50,52,54,56,58,60,62,64,66,68,70,72,74,76,78,80,82,84,86,88,90,92,94,96,98,100,102,104,106,108,110,112,114,116,118,120,122,124,126,-1,-1,-1,-1,-1,-1,-1,-1,-1,-1,-1,-1,-1,-1,-1,-1,-1,-1,-1,-1,-1,-1,-1,-1,-1,-1,-1,-1,-1,-1,-1,-1,-1,-1,-1,-1,-1,-1,-1,-1,-1,-1,-1,-1,-1,-1,-1,-1,-1,-1,-1,-1,-1,-1,-1,-1,-1,-1,-1,-1,-1,-1,-1,-1],"split_conditions":[2.1857142E0,9.8571426E-1,4.142857E0,5.857143E-1,1.4571428E0,3.057143E0,7.1E0,3.857143E-1,7.714286E-1,5E0,5E0,1E0,5E0,1E0,1.34E-1,2.88E-1,5E0,4.08E-1,5E0,1.1142857E0,9.6E-1,1E0,1.9E0,1.5E0,7.7E1,2.1E0,7.7E1,4.6E0,7.7E1,6.25E0,1.32E0,2.4285714E-1,8E0,2.81E-1,3.91E-1,5E0,2.6E1,4.51E-1,4.51E-1,3.75E-1,9.6E-1,3.97E-1,1.1384616E0,1E0,1.7428571E0,9E-1,1.8769231E0,1.58E0,2.5857143E0,1.4E1,1.05E-1,2.2E0,3.5357144E0,2.3E0,1E0,4.1E0,5.5285716E0,7.3E0,3E0,1E0,5E0,5E0,6.3714285E0,-2.7654184E-2,-2.2531094E-2,5.319209E-3,-1.4935091E-2,-1.9518923E-2,-9.914326E-3,-1.4896303E-2,1.0487406E-2,-1.3847678E-2,-8.542262E-3,4.8002034E-2,-5.980335E-3,-7.405548E-3,2.7838616E-2,-3.8634686E-4,5.3904135E-2,-2.2975598E-3,1.7332077E-2,1.005308E-3,8.301127E-3,3.4702432E-3,8.435667E-2,1.0809834E-2,2.1374349E-2,-5.55882E-3,1.3980637E-2,1.7522112E-2,2.8953075E-2,1.267415E-2,3.5532504E-2,4.0245425E-2,5.751409E-2,5.24816E-3,3.2909263E-2,4.3276425E-2,5.7970714E-2,2.5177006E-2,6.878611E-2,2.957566E-2,1.8772006E-1,2.6694713E-2,6.550922E-2,7.5928174E-2,9.343273E-2,6.3524835E-2,1.1898845E-1,-1.8645456E-2,2.1772173E-1,8.468266E-2,1.2184576E-1,1.2361752E-1,1.6433601E-1,1.5539984E-1,2.4505226E-1,7.3794436E-1,2.8616855E-1,1.3695352E-1,2.0801476E-1,2.276049E-1,2.7601966E-1,6.269954E-1,2.5863367E-1,2.7763605E-1,4.212831E-1],"split_indices":[9,9,9,9,9,9,6,9,9,0,0,14,0,14,12,12,0,12,0,10,5,5,5,5,17,5,17,5,17,10,22,9,17,12,12,0,17,12,12,12,5,12,10,6,9,7,10,6,9,1,12,6,10,5,14,6,9,5,0,14,0,7,9,0,0,0,0,0,0,0,0,0,0,0,0,0,0,0,0,0,0,0,0,0,0,0,0,0,0,0,0,0,0,0,0,0,0,0,0,0,0,0,0,0,0,0,0,0,0,0,0,0,0,0,0,0,0,0,0,0,0,0,0,0,0,0,0],"split_type":[0,0,0,0,0,0,0,0,0,0,0,0,0,0,0,0,0,0,0,0,0,0,0,0,0,0,0,0,0,0,0,0,0,0,0,0,0,0,0,0,0,0,0,0,0,0,0,0,0,0,0,0,0,0,0,0,0,0,0,0,0,0,0,0,0,0,0,0,0,0,0,0,0,0,0,0,0,0,0,0,0,0,0,0,0,0,0,0,0,0,0,0,0,0,0,0,0,0,0,0,0,0,0,0,0,0,0,0,0,0,0,0,0,0,0,0,0,0,0,0,0,0,0,0,0,0,0],"sum_hessian":[1.466185E6,1.345387E6,1.20798E5,1.019424E6,3.25963E5,8.6367E4,3.4431E4,5.66959E5,4.52465E5,2.04282E5,1.21681E5,5.1744E4,3.4623E4,2.9362E4,5.069E3,1.80955E5,3.86004E5,2.65962E5,1.86503E5,1.4685E5,5.7432E4,8.7442E4,3.4239E4,3.4411E4,1.7333E4,2.4941E4,9.682E3,2.1302E4,8.06E3,4.086E3,9.83E2,1.73015E5,7.94E3,2.77204E5,1.088E5,2.64102E5,1.86E3,1.33321E5,5.3182E4,6.6794E4,8.0056E4,1.7522E4,3.991E4,1.1571E4,7.5871E4,1.9188E4,1.5051E4,5.261E3,2.915E4,1.6063E4,1.27E3,3.974E3,2.0967E4,8.695E3,9.87E2,1.0273E4,1.1029E4,7.592E3,4.68E2,2.286E3,1.8E3,1.19E2,8.64E2,3.4373E4,1.38642E5,1.16E3,6.78E3,2.66165E5,1.1039E4,1.07725E5,1.075E3,1.88624E5,7.5478E4,9.26E2,9.34E2,1.32654E5,6.67E2,5.28E4,3.82E2,6.4363E4,2.431E3,2.4159E4,5.5897E4,1.72E4,3.22E2,1.8934E4,2.0976E4,5.245E3,6.326E3,3.8398E4,3.7473E4,5.775E3,1.3413E4,1.0057E4,4.994E3,2.867E3,2.394E3,1.6042E4,1.3108E4,1.526E3,1.4537E4,2.54E2,1.016E3,2.104E3,1.87E3,1.0841E4,1.0126E4,9.98E2,7.697E3,6.7E1,9.2E2,5.88E3,4.393E3,6.7E3,4.329E3,6.917E3,6.75E2,1.9E1,4.49E2,9.09E2,1.377E3,1.053E3,7.47E2,9.3E1,2.6E1,5.89E2,2.75E2],"tree_param":{"num_deleted":"0","num_feature":"24","num_nodes":"127","size_leaf_vector":"1"}},{"base_weights":[-4.4633905E-4,-1.4249106E-1,1.874612E0,-2.732365E-1,3.1232825E-1,1.569099E0,3.4275231E0,-3.5218468E-1,-1.3612172E-1,1.7318119E-1,5.8259445E-1,1.2009203E0,2.0777662E0,2.9572468E0,4.3590446E0,-4.034001E-1,-3.0600652E-1,-1.9031957E-1,-5.6943733E-2,1.1202923E-1,3.2919836E-1,4.435133E-1,7.6479584E-1,6.3187075E-1,1.3054152E0,1.908497E0,2.8625789E0,2.5552738E0,3.257754E0,3.891812E0,5.66663E0,-4.135271E-1,-2.0438316E-1,-3.4991717E-1,-2.6107702E-1,-2.037106E-1,5.1685806E-2,-6.439281E-2,7.3367786E-1,4.759768E-2,2.0944908E-1,2.2758296E-1,4.683067E-1,1.2543376E-1,5.324729E-1,6.45861E-1,1.057194E0,1.1056949E0,3.7158555E-1,1.1613928E0,1.7130511E0,1.7730933E0,2.366683E0,2.6061711E0,3.9823694E0,2.0213366E0,2.8659432E0,3.0047252E0,3.8736773E0,2.981946E0,4.411787E0,4.3253345E0,7.322719E0,-2.463364E-2,-1.9859225E-2,-1.7970964E-2,-3.0223362E-3,-1.8641623E-2,-1.4399211E-2,-1.3360733E-2,1.0769067E-2,-1.173116E-2,-6.2474133E-3,1.6866656E-2,-3.7547934E-3,-5.247918E-3,1.9257189E-3,-3.648204E-3,7.349761E-2,1.8830507E-3,3.0403927E-2,7.1963132E-3,1.6289411E-2,-2.3722497E-3,1.5365036E-2,1.9719625E-2,5.3209253E-2,2.5181954E-3,2.092428E-2,2.2062501E-2,3.548759E-2,2.718374E-2,3.8991667E-2,4.6581548E-2,9.91416E-2,3.5186592E-2,6.74286E-2,1.5054074E-2,7.295676E-2,5.1774062E-2,7.056024E-2,8.325445E-2,2.094852E-1,9.542509E-2,4.966987E-2,1.1232831E-1,2.5460586E-1,1.1377479E-1,1.5342484E-1,1.7460902E-1,4.2559338E-1,6.4769074E-2,1.12973146E-1,1.3206105E-1,1.9837041E-1,1.3941577E-1,1.768294E-1,1.8391734E-1,3.0163354E-1,1.0226091E-1,1.7651904E-1,2.0163849E-1,2.3999289E-1,2.4017404E-1,3.122275E-2,6.2957513E-1,3.3958015E-1],"categories":[],"categories_nodes":[],"categories_segments":[],"categories_sizes":[],"default_left":[0,0,0,0,0,0,0,0,0,0,0,0,0,0,0,0,0,0,0,0,0,0,0,0,0,0,0,0,0,0,0,0,0,0,0,0,0,0,0,0,0,0,0,0,0,0,0,0,0,0,0,0,0,0,0,0,0,0,0,0,0,0,0,0,0,0,0,0,0,0,0,0,0,0,0,0,0,0,0,0,0,0,0,0,0,0,0,0,0,0,0,0,0,0,0,0,0,0,0,0,0,0,0,0,0,0,0,0,0,0,0,0,0,0,0,0,0,0,0,0,0,0,0,0,0,0,0],"id":7,"left_children":[1,3,5,7,9,11,13,15,17,19,21,23,25,27,29,31,33,35,37,39,41,43,45,47,49,51,53,55,57,59,61,63,65,67,69,71,73,75,77,79,81,83,85,87,89,91,93,95,97,99,101,103,105,107,109,111,113,115,117,119,121,123,125,-1,-1,-1,-1,-1,-1,-1,-1,-1,-1,-1,-1,-1,-1,-1,-1,-1,-1,-1,-1,-1,-1,-1,-1,-1,-1,-1,-1,-1,-1,-1,-1,-1,-1,-1,-1,-1,-1,-1,-1,-1,-1,-1,-1,-1,-1,-1,-1,-1,-1,-1,-1,-1,-1,-1,-1,-1,-1,-1,-1,-1,-1,-1,-1],"loss_changes":[3.904464E5,8.103529E4,4.8971938E4,1.1457695E4,1.1442539E4,1.6153047E4,7.4211875E3,1.5884688E3,1.6596621E3,1.9163193E3,2.6201992E3,2.9749844E3,4.806172E3,1.3542578E3,3.4548438E3,6.4178906E2,6.9678125E2,7.440596E2,9.2563226E2,9.057612E2,7.993862E2,1.6594512E3,1.5560801E3,9.573655E2,2.480211E3,1.8444219E3,1.8340938E3,7.9539844E2,9.9372656E2,1.9720039E3,3.2914023E3,3.9178906E2,3.441479E2,2.5341406E2,5.1062012E2,5.29667E2,4.3601587E2,6.499505E2,8.7137274E2,4.8371655E2,4.3784863E2,7.1664246E2,1.051084E3,2.8198865E2,7.4084375E2,4.3525098E2,1.5023496E3,2.6781958E2,3.8401752E2,9.813281E2,1.3039375E3,2.4268047E3,2.2127148E3,7.925781E2,2.623545E3,3.047793E2,7.447168E2,5.169531E2,7.6852734E2,7.782803E2,3.730664E2,1.4639678E3,1.7837734E3,0E0,0E0,0E0,0E0,0E0,0E0,0E0,0E0,0E0,0E0,0E0,0E0,0E0,0E0,0E0,0E0,0E0,0E0,0E0,0E0,0E0,0E0,0E0,0E0,0E0,0E0,0E0,0E0,0E0,0E0,0E0,0E0,0E0,0E0,0E0,0E0,0E0,0E0,0E0,0E0,0E0,0E0,0E0,0E0,0E0,0E0,0E0,0E0,0E0,0E0,0E0,0E0,0E0,0E0,0E0,0E0,0E0,0E0,0E0,0E0,0E0,0E0,0E0,0E0],"parents":[2147483647,0,0,1,1,2,2,3,3,4,4,5,5,6,6,7,7,8,8,9,9,10,10,11,11,12,12,13,13,14,14,15,15,16,16,17,17,18,18,19,19,20,20,21,21,22,22,23,23,24,24,25,25,26,26,27,27,28,28,29,29,30,30,31,31,32,32,33,33,34,34,35,35,36,36,37,37,38,38,39,39,40,40,41,41,42,42,43,43,44,44,45,45,46,46,47,47,48,48,49,49,50,50,51,51,52,52,53,53,54,54,55,55,56,56,57,57,58,58,59,59,60,60,61,61,62,62],"right_children":[2,4,6,8,10,12,14,16,18,20,22,24,26,28,30,32,34,36,38,40,42,44,46,48,50,52,54,56,58,60,62,64,66,68,70,72,74,76,78,80,82,84,86,88,90,92,94,96,98,100,102,104,106,108,110,112,114,116,118,120,122,124,126,-1,-1,-1,-1,-1,-1,-1,-1,-1,-1,-1,-1,-1,-1,-1,-1,-1,-1,-1,-1,-1,-1,-1,-1,-1,-1,-1,-1,-1,-1,-1,-1,-1,-1,-1,-1,-1,-1,-1,-1,-1,-1,-1,-1,-1,-1,-1,-1,-1,-1,-1,-1,-1,-1,-1,-1,-1,-1,-1,-1,-1,-1,-1,-1],"split_conditions":[2.3785715E0,1.0428572E0,5.2E0,6.5E-1,1.5857143E0,3.5357144E0,7.1E0,4.7142857E-1,8.357143E-1,5E0,1.18E-1,9E-1,5E0,4.65E0,1.33E-1,2.81E-1,3E-3,2.81E-1,4.08E-1,1.3071429E0,9.200001E-2,9E-1,5E0,5E0,5E0,1E0,6E0,1E0,5E0,5.4615383E0,4.992857E0,3.0714285E-1,5E0,5E0,4.08E-1,5E0,2.8E1,5E0,5E0,3.9E-1,1.18E-1,1.5E1,2.9E1,1.5E1,1E0,1.9571428E0,2.8E1,2.7785714E0,2.1E0,3.05E0,2.2193842E0,2.6E1,7.7E1,4.992857E0,3.2961738E0,3.7142856E0,7.7E1,6.25E0,2.5960593E0,1E0,1E0,2.7961E0,1.32E0,-2.463364E-2,-1.9859225E-2,-1.7970964E-2,-3.0223362E-3,-1.8641623E-2,-1.4399211E-2,-1.3360733E-2,1.0769067E-2,-1.173116E-2,-6.2474133E-3,1.6866656E-2,-3.7547934E-3,-5.247918E-3,1.9257189E-3,-3.648204E-3,7.349761E-2,1.8830507E-3,3.0403927E-2,7.1963132E-3,1.6289411E-2,-2.3722497E-3,1.5365036E-2,1.9719625E-2,5.3209253E-2,2.5181954E-3,2.092428E-2,2.2062501E-2,3.548759E-2,2.718374E-2,3.8991667E-2,4.6581548E-2,9.91416E-2,3.5186592E-2,6.74286E-2,1.5054074E-2,7.295676E-2,5.1774062E-2,7.056024E-2,8.325445E-2,2.094852E-1,9.542509E-2,4.966987E-2,1.1232831E-1,2.5460586E-1,1.1377479E-1,1.5342484E-1,1.7460902E-1,4.2559338E-1,6.4769074E-2,1.12973146E-1,1.3206105E-1,1.9837041E-1,1.3941577E-1,1.768294E-1,1.8391734E-1,3.0163354E-1,1.0226091E-1,1.7651904E-1,2.0163849E-1,2.3999289E-1,2.4017404E-1,3.122275E-2,6.2957513E-1,3.3958015E-1],"split_indices":[10,10,6,10,10,10,6,10,10,0,12,6,7,10,12,12,12,12,12,10,12,6,0,16,0,14,0,14,0,10,10,10,16,0,12,0,17,0,16,12,12,1,16,1,14,10,16,10,7,10,11,16,17,10,11,10,17,10,11,14,14,23,22,0,0,0,0,0,0,0,0,0,0,0,0,0,0,0,0,0,0,0,0,0,0,0,0,0,0,0,0,0,0,0,0,0,0,0,0,0,0,0,0,0,0,0,0,0,0,0,0,0,0,0,0,0,0,0,0,0,0,0,0,0,0,0,0],"split_type":[0,0,0,0,0,0,0,0,0,0,0,0,0,0,0,0,0,0,0,0,0,0,0,0,0,0,0,0,0,0,0,0,0,0,0,0,0,0,0,0,0,0,0,0,0,0,0,0,0,0,0,0,0,0,0,0,0,0,0,0,0,0,0,0,0,0,0,0,0,0,0,0,0,0,0,0,0,0,0,0,0,0,0,0,0,0,0,0,0,0,0,0,0,0,0,0,0,0,0,0,0,0,0,0,0,0,0,0,0,0,0,0,0,0,0,0,0,0,0,0,0,0,0,0,0,0,0],"sum_hessian":[1.465956E6,1.362724E6,1.03232E5,1.058454E6,3.0427E5,8.6263E4,1.6969E4,6.717E5,3.86754E5,2.00859E5,1.03411E5,5.0044E4,3.6219E4,1.1279E4,5.69E3,3.18476E5,3.53224E5,2.29594E5,1.5716E5,1.44301E5,5.6558E4,5.8647E4,4.4764E4,7.765E3,4.2279E4,2.9796E4,6.423E3,4.829E3,6.45E3,4.195E3,1.495E3,3.03054E5,1.5422E4,1.78634E5,1.7459E5,2.17556E5,1.2038E4,1.55694E5,1.466E3,8.6857E4,5.7444E4,3.2685E4,2.3873E4,1.2818E4,4.5829E4,3.1823E4,1.2941E4,2.752E3,5.013E3,3.1244E4,1.1035E4,2.3003E4,6.793E3,5.229E3,1.194E3,1.779E3,3.05E3,4.576E3,1.874E3,1.528E3,2.667E3,8.28E2,6.67E2,5.1862E4,2.51192E5,7.424E3,7.998E3,1.30386E5,4.8248E4,1.7237E5,2.22E3,1.56235E5,6.1321E4,3.7E3,8.338E3,1.11673E5,4.4021E4,7E2,7.66E2,8.5345E4,1.512E3,3.6749E4,2.0695E4,7.345E3,2.534E4,2.124E4,2.633E3,1.0205E4,2.613E3,3.0261E4,1.5568E4,1.8056E4,1.3767E4,1.1397E4,1.544E3,1.038E3,1.714E3,4.709E3,3.04E2,2.0777E4,1.0467E4,1.0827E4,2.08E2,1.9598E4,3.405E3,6.508E3,2.85E2,3.052E3,2.177E3,1.079E3,1.15E2,4.41E2,1.338E3,2.536E3,5.14E2,3.257E3,1.319E3,1.721E3,1.53E2,5.66E2,9.62E2,1.355E3,1.312E3,7.33E2,9.5E1,5.9E1,6.08E2],"tree_param":{"num_deleted":"0","num_feature":"24","num_nodes":"127","size_leaf_vector":"1"}},{"base_weights":[-5.1009766E-4,-1.492257E-1,1.6551212E0,-2.7558228E-1,2.160884E-1,1.1320661E0,2.5063822E0,-3.5358128E-1,-1.7338596E-1,8.82257E-2,4.5222268E-1,7.7929175E-1,1.3514036E0,2.1714683E0,3.6845222E0,-4.177564E-1,-3.235313E-1,-2.254978E-1,-1.0951432E-1,3.682994E-2,2.1871561E-1,2.737141E-1,5.4871446E-1,8.866936E-2,9.091426E-1,1.169074E0,1.7682109E0,1.8326994E0,2.6164298E0,3.3870504E0,5.47523E0,-4.2583072E-1,-1.9716273E-1,-3.5856065E-1,-2.831414E-1,-2.3823988E-1,-1.8144391E-2,-1.1523419E-1,7.354213E-1,-3.0158885E-2,1.1713857E-1,1.5685974E-1,3.8072187E-1,-3.205571E-2,3.6721346E-1,4.575695E-1,7.6311386E-1,-1.6401317E-2,4.6276274E-1,7.826669E-1,1.3570006E0,9.1756886E-1,1.3621503E0,1.6386969E0,3.135186E0,1.1861657E0,2.002836E0,2.2844753E0,3.2927983E0,3.0065484E0,4.111575E0,6.710152E0,3.767731E0,-2.5133107E-2,-2.0346625E-2,1.5200463E-2,-1.3872643E-2,-1.8957688E-2,-1.5137679E-2,-1.4439709E-2,6.232909E-3,-1.3319849E-2,-8.357613E-3,-2.7140062E-3,2.6990304E-2,-7.4561983E-3,-1.8227525E-3,8.72198E-2,-1.0738234E-2,-4.455213E-3,1.0275512E-3,-1.4501101E-3,7.7890637E-3,7.1317996E-3,6.277188E-2,3.699447E-2,1.7670829E-2,-9.081394E-3,8.170256E-3,1.7406715E-2,8.289789E-2,1.8223215E-2,2.8662601E-2,3.199605E-2,4.609706E-2,6.0745715E-3,-1.1151734E-2,1.897011E-2,3.8837347E-2,4.3208104E-2,2.5169272E-2,5.9134264E-2,1.5595974E-1,4.257089E-2,5.333E-2,6.1433144E-2,7.5298145E-2,6.721587E-2,9.6417956E-2,3.4442714E-1,1.4445065E-1,4.3086752E-2,8.764172E-2,9.4198406E-2,1.2300719E-1,9.968673E-2,1.3283804E-1,1.5237492E-1,2.4941693E-1,1.2944289E-1,1.653648E-1,1.8455078E-1,2.4932699E-1,4.0996796E-1,2.5807863E-1,2.7276888E-1,1.383637E-1],"categories":[],"categories_nodes":[],"categories_segments":[],"categories_sizes":[],"default_left":[0,0,0,0,0,0,0,0,0,0,0,0,0,0,0,0,0,0,0,0,0,0,0,0,0,0,0,0,0,0,0,0,0,0,0,0,0,0,0,0,0,0,0,0,0,0,0,0,0,0,0,0,0,0,0,0,0,0,0,0,0,0,0,0,0,0,0,0,0,0,0,0,0,0,0,0,0,0,0,0,0,0,0,0,0,0,0,0,0,0,0,0,0,0,0,0,0,0,0,0,0,0,0,0,0,0,0,0,0,0,0,0,0,0,0,0,0,0,0,0,0,0,0,0,0,0,0],"id":8,"left_children":[1,3,5,7,9,11,13,15,17,19,21,23,25,27,29,31,33,35,37,39,41,43,45,47,49,51,53,55,57,59,61,63,65,67,69,71,73,75,77,79,81,83,85,87,89,91,93,95,97,99,101,103,105,107,109,111,113,115,117,119,121,123,125,-1,-1,-1,-1,-1,-1,-1,-1,-1,-1,-1,-1,-1,-1,-1,-1,-1,-1,-1,-1,-1,-1,-1,-1,-1,-1,-1,-1,-1,-1,-1,-1,-1,-1,-1,-1,-1,-1,-1,-1,-1,-1,-1,-1,-1,-1,-1,-1,-1,-1,-1,-1,-1,-1,-1,-1,-1,-1,-1,-1,-1,-1,-1,-1],"loss_changes":[3.6090275E5,6.2083805E4,5.3789E4,7.96575E3,1.0436119E4,5.7892734E3,1.8134188E4,1.0928359E3,1.4397607E3,1.5038457E3,2.0912285E3,2.572957E3,3.5045547E3,5.3922656E3,5.402047E3,3.218457E2,5.4604297E2,6.2938086E2,9.393926E2,8.654651E2,6.348933E2,1.2180583E3,1.5397871E3,1.7853654E2,1.3669258E3,1.5576602E3,2.480539E3,2.2340156E3,3.4667578E3,2.3940781E3,3.0280078E3,2.529668E2,2.5697113E2,2.3745703E2,4.1334082E2,4.4916113E2,2.781029E2,5.154009E2,1.2534133E3,2.6218005E2,4.1317603E2,7.163623E2,1.7143262E2,2.9174152E2,8.029292E2,5.9547266E2,4.5939844E2,1.0109262E2,2.5774506E1,4.2825293E2,1.6295723E3,1.3656934E2,3.4675E2,1.0911719E3,1.1018047E3,7.7762305E2,8.7021875E2,1.1185469E3,2.1026367E3,7.108633E2,1.086625E3,1.892543E3,1.0148379E3,0E0,0E0,0E0,0E0,0E0,0E0,0E0,0E0,0E0,0E0,0E0,0E0,0E0,0E0,0E0,0E0,0E0,0E0,0E0,0E0,0E0,0E0,0E0,0E0,0E0,0E0,0E0,0E0,0E0,0E0,0E0,0E0,0E0,0E0,0E0,0E0,0E0,0E0,0E0,0E0,0E0,0E0,0E0,0E0,0E0,0E0,0E0,0E0,0E0,0E0,0E0,0E0,0E0,0E0,0E0,0E0,0E0,0E0,0E0,0E0,0E0,0E0,0E0,0E0],"parents":[2147483647,0,0,1,1,2,2,3,3,4,4,5,5,6,6,7,7,8,8,9,9,10,10,11,11,12,12,13,13,14,14,15,15,16,16,17,17,18,18,19,19,20,20,21,21,22,22,23,23,24,24,25,25,26,26,27,27,28,28,29,29,30,30,31,31,32,32,33,33,34,34,35,35,36,36,37,37,38,38,39,39,40,40,41,41,42,42,43,43,44,44,45,45,46,46,47,47,48,48,49,49,50,50,51,51,52,52,53,53,54,54,55,55,56,56,57,57,58,58,59,59,60,60,61,61,62,62],"right_children":[2,4,6,8,10,12,14,16,18,20,22,24,26,28,30,32,34,36,38,40,42,44,46,48,50,52,54,56,58,60,62,64,66,68,70,72,74,76,78,80,82,84,86,88,90,92,94,96,98,100,102,104,106,108,110,112,114,116,118,120,122,124,126,-1,-1,-1,-1,-1,-1,-1,-1,-1,-1,-1,-1,-1,-1,-1,-1,-1,-1,-1,-1,-1,-1,-1,-1,-1,-1,-1,-1,-1,-1,-1,-1,-1,-1,-1,-1,-1,-1,-1,-1,-1,-1,-1,-1,-1,-1,-1,-1,-1,-1,-1,-1,-1,-1,-1,-1,-1,-1,-1,-1,-1,-1,-1,-1],"split_conditions":[2.1857142E0,9.5714283E-1,3.7285714E0,5.857143E-1,1.4571428E0,2.4E0,5.9E0,3.857143E-1,7.3571426E-1,5E0,1.5E0,1.4E1,5E0,4.6E0,1.34E-1,3.4E-1,3E-3,2.81E-1,4.08E-1,1.1714286E0,1.5E0,8E-1,5E0,1.4E0,5E0,2.8E0,7.7E1,2.5E0,4E0,6.3714285E0,1E0,2.4285714E-1,8E0,5E0,4.08E-1,5E0,4.51E-1,1E0,2.6E1,3E-3,9E-1,4.08E-1,1.4E1,9E-1,4.08E-1,1.8142858E0,1.8142858E0,1.7E-2,2.1E0,7.6E1,1.7597349E0,2.5615385E0,3.2071428E0,2.7785714E0,6.59E1,3.1E0,5E0,5.0285716E0,7.3E0,5E0,5E0,2.1E1,1.7E1,-2.5133107E-2,-2.0346625E-2,1.5200463E-2,-1.3872643E-2,-1.8957688E-2,-1.5137679E-2,-1.4439709E-2,6.232909E-3,-1.3319849E-2,-8.357613E-3,-2.7140062E-3,2.6990304E-2,-7.4561983E-3,-1.8227525E-3,8.72198E-2,-1.0738234E-2,-4.455213E-3,1.0275512E-3,-1.4501101E-3,7.7890637E-3,7.1317996E-3,6.277188E-2,3.699447E-2,1.7670829E-2,-9.081394E-3,8.170256E-3,1.7406715E-2,8.289789E-2,1.8223215E-2,2.8662601E-2,3.199605E-2,4.609706E-2,6.0745715E-3,-1.1151734E-2,1.897011E-2,3.8837347E-2,4.3208104E-2,2.5169272E-2,5.9134264E-2,1.5595974E-1,4.257089E-2,5.333E-2,6.1433144E-2,7.5298145E-2,6.721587E-2,9.6417956E-2,3.4442714E-1,1.4445065E-1,4.3086752E-2,8.764172E-2,9.4198406E-2,1.2300719E-1,9.968673E-2,1.3283804E-1,1.5237492E-1,2.4941693E-1,1.2944289E-1,1.653648E-1,1.8455078E-1,2.4932699E-1,4.0996796E-1,2.5807863E-1,2.7276888E-1,1.383637E-1],"split_indices":[9,9,9,9,9,5,6,9,10,0,5,1,0,5,12,12,12,12,12,9,5,6,0,5,0,9,17,5,0,9,13,9,17,0,12,0,12,5,17,12,5,12,1,5,12,9,9,12,5,17,11,10,10,10,21,6,0,9,5,0,0,1,1,0,0,0,0,0,0,0,0,0,0,0,0,0,0,0,0,0,0,0,0,0,0,0,0,0,0,0,0,0,0,0,0,0,0,0,0,0,0,0,0,0,0,0,0,0,0,0,0,0,0,0,0,0,0,0,0,0,0,0,0,0,0,0,0],"split_type":[0,0,0,0,0,0,0,0,0,0,0,0,0,0,0,0,0,0,0,0,0,0,0,0,0,0,0,0,0,0,0,0,0,0,0,0,0,0,0,0,0,0,0,0,0,0,0,0,0,0,0,0,0,0,0,0,0,0,0,0,0,0,0,0,0,0,0,0,0,0,0,0,0,0,0,0,0,0,0,0,0,0,0,0,0,0,0,0,0,0,0,0,0,0,0,0,0,0,0,0,0,0,0,0,0,0,0,0,0,0,0,0,0,0,0,0,0,0,0,0,0,0,0,0,0,0,0],"sum_hessian":[1.465782E6,1.344972E6,1.2081E5,9.99322E5,3.4565E5,7.4832E4,4.5978E4,5.66756E5,4.32566E5,2.24233E5,1.21417E5,2.8691E4,4.6141E4,3.5803E4,1.0175E4,1.80744E5,3.86012E5,2.38211E5,1.94355E5,1.60872E5,6.3361E4,4.2604E4,7.8813E4,4.541E3,2.415E4,3.2102E4,1.4039E4,2.033E4,1.5473E4,8.728E3,1.447E3,1.74361E5,6.383E3,2.0672E5,1.79292E5,2.2442E5,1.3791E4,1.93049E5,1.306E3,8.771E4,7.3162E4,4.5855E4,1.7506E4,9.977E3,3.2627E4,5.5305E4,2.3508E4,3.546E3,9.95E2,1.8834E4,5.316E3,1.3944E4,1.8158E4,1.2826E4,1.213E3,4.237E3,1.6093E4,1.0382E4,5.091E3,5.726E3,3.002E3,8.38E2,6.09E2,3.4416E4,1.39945E5,8.81E2,5.502E3,1.50996E5,5.5724E4,1.76841E5,2.451E3,1.60747E5,6.3673E4,1.2953E4,8.38E2,1.34981E5,5.8068E4,6.33E2,6.73E2,4.0561E4,4.7149E4,1.53E4,5.7862E4,4.527E4,5.85E2,1.235E3,1.6271E4,5.652E3,4.325E3,3.2153E4,4.74E2,3.0645E4,2.466E4,1.3242E4,1.0266E4,2.127E3,1.419E3,7.88E2,2.07E2,1.4578E4,4.256E3,4.839E3,4.77E2,9.662E3,4.282E3,9.422E3,8.736E3,6.364E3,6.462E3,7.3E1,1.14E3,2.696E3,1.541E3,1.2777E4,3.316E3,5.833E3,4.549E3,4.45E3,6.41E2,2.401E3,3.325E3,2.031E3,9.71E2,4.25E2,4.13E2,2.25E2,3.84E2],"tree_param":{"num_deleted":"0","num_feature":"24","num_nodes":"127","size_leaf_vector":"1"}},{"base_weights":[7.822134E-6,-1.3033898E-1,1.7099386E0,-2.3888531E-1,3.1329507E-1,1.3263644E0,2.714204E0,-3.1251094E-1,-9.369364E-2,1.9262387E-1,5.7203764E-1,1.1421165E0,1.8884015E0,2.307131E0,3.7333193E0,-3.5674602E-1,-2.4901202E-1,-1.4270724E-1,-9.30762E-3,2.762215E-2,2.4642666E-1,4.7097552E-1,7.746372E-1,6.1467487E-1,1.3241245E0,1.757907E0,2.821338E0,1.983692E0,2.7939436E0,3.3214395E0,5.629924E0,-3.8926923E-1,-3.1391487E-1,-2.516904E-1,5.165662E-1,-1.5629216E-1,6.1424904E-2,-1.553571E-2,8.0672103E-1,9.701243E-3,1.2771881E0,1.843439E-1,3.976662E-1,1.978438E-1,5.313855E-1,7.560505E-1,2.4157405E0,1.0979725E-1,8.0883694E-1,1.1795412E0,1.679326E0,1.4516519E0,1.9200801E0,5.871276E0,2.6901124E0,1.446301E0,2.1824102E0,2.467071E0,3.460867E0,2.9432633E0,3.9436326E0,4.3569994E0,7.362044E0,-2.2558343E-2,-1.8190308E-2,-1.6066518E-2,-3.6754792E-3,-1.3815224E-2,-9.500481E-3,7.95371E-2,1.1570297E-2,-9.343807E-3,-3.923436E-3,8.99041E-4,2.7615292E-2,-9.402906E-3,2.8759587E-4,-4.0038335E-3,7.65855E-2,-9.47849E-3,5.2499487E-3,4.1746568E-2,1.2314137E-1,5.767873E-3,1.3407433E-2,1.5117928E-2,2.5403654E-2,-4.7231587E-3,1.551487E-2,2.3351176E-2,3.4059398E-2,1.4738299E-2,4.094204E-2,2.418218E-1,9.445598E-2,1.2626002E-2,-7.104784E-3,3.5290495E-2,6.2194955E-2,5.1159617E-2,7.3639534E-2,7.705593E-2,1.4863096E-1,5.7537187E-2,8.2827546E-2,9.0112545E-2,1.2011974E-1,1.8609625E-1,3.7471905E-1,6.88174E-2,1.4718184E-1,5.1671963E-2,9.377395E-2,9.8038994E-2,1.2101258E-1,1.0726484E-1,1.31788E-1,1.5540332E-1,1.8845452E-1,1.6979547E-1,1.2874936E-1,1.7544107E-1,2.3927544E-1,1.1955382E-1,2.594903E-1,5.926952E-1,3.4594592E-1],"categories":[],"categories_nodes":[],"categories_segments":[],"categories_sizes":[],"default_left":[0,0,0,0,0,0,0,0,0,0,0,0,0,0,0,0,0,0,0,0,0,0,0,0,0,0,0,0,0,0,0,0,0,0,0,0,0,0,0,0,0,0,0,0,0,0,0,0,0,0,0,0,0,0,0,0,0,0,0,0,0,0,0,0,0,0,0,0,0,0,0,0,0,0,0,0,0,0,0,0,0,0,0,0,0,0,0,0,0,0,0,0,0,0,0,0,0,0,0,0,0,0,0,0,0,0,0,0,0,0,0,0,0,0,0,0,0,0,0,0,0,0,0,0,0,0,0],"id":9,"left_children":[1,3,5,7,9,11,13,15,17,19,21,23,25,27,29,31,33,35,37,39,41,43,45,47,49,51,53,55,57,59,61,63,65,67,69,71,73,75,77,79,81,83,85,87,89,91,93,95,97,99,101,103,105,107,109,111,113,115,117,119,121,123,125,-1,-1,-1,-1,-1,-1,-1,-1,-1,-1,-1,-1,-1,-1,-1,-1,-1,-1,-1,-1,-1,-1,-1,-1,-1,-1,-1,-1,-1,-1,-1,-1,-1,-1,-1,-1,-1,-1,-1,-1,-1,-1,-1,-1,-1,-1,-1,-1,-1,-1,-1,-1,-1,-1,-1,-1,-1,-1,-1,-1,-1,-1,-1,-1],"loss_changes":[3.268086E5,6.5607016E4,4.0002812E4,1.1701023E4,8.362004E3,7.7803438E3,1.1898953E4,2.0399844E3,1.5233145E3,1.621416E3,1.7436895E3,5.4328984E3,2.2537422E3,3.2243125E3,6.3798906E3,5.961953E2,6.1162305E2,6.460913E2,6.8775946E2,1.00571814E3,1.2931436E3,9.3763184E2,8.62834E2,1.4235728E3,2.159086E3,8.057344E2,8.947285E2,1.3133477E3,1.7760039E3,1.5724219E3,3.1870195E3,3.8332422E2,3.2936328E2,4.5112695E2,3.1819666E2,5.199121E2,3.1002557E2,4.932229E2,6.591144E2,8.4086255E2,3.3091052E2,5.64522E2,4.2162402E2,3.3843594E2,4.483916E2,8.1165137E2,3.949713E2,1.450976E2,4.6927295E2,1.3698438E3,2.1708984E3,3.4583203E2,6.0034766E2,2.9654834E2,7.230449E2,5.8828564E2,4.695664E2,2.9272266E2,2.8080078E2,6.898906E2,9.1372266E2,1.369417E3,1.1460898E3,0E0,0E0,0E0,0E0,0E0,0E0,0E0,0E0,0E0,0E0,0E0,0E0,0E0,0E0,0E0,0E0,0E0,0E0,0E0,0E0,0E0,0E0,0E0,0E0,0E0,0E0,0E0,0E0,0E0,0E0,0E0,0E0,0E0,0E0,0E0,0E0,0E0,0E0,0E0,0E0,0E0,0E0,0E0,0E0,0E0,0E0,0E0,0E0,0E0,0E0,0E0,0E0,0E0,0E0,0E0,0E0,0E0,0E0,0E0,0E0,0E0,0E0,0E0,0E0],"parents":[2147483647,0,0,1,1,2,2,3,3,4,4,5,5,6,6,7,7,8,8,9,9,10,10,11,11,12,12,13,13,14,14,15,15,16,16,17,17,18,18,19,19,20,20,21,21,22,22,23,23,24,24,25,25,26,26,27,27,28,28,29,29,30,30,31,31,32,32,33,33,34,34,35,35,36,36,37,37,38,38,39,39,40,40,41,41,42,42,43,43,44,44,45,45,46,46,47,47,48,48,49,49,50,50,51,51,52,52,53,53,54,54,55,55,56,56,57,57,58,58,59,59,60,60,61,61,62,62],"right_children":[2,4,6,8,10,12,14,16,18,20,22,24,26,28,30,32,34,36,38,40,42,44,46,48,50,52,54,56,58,60,62,64,66,68,70,72,74,76,78,80,82,84,86,88,90,92,94,96,98,100,102,104,106,108,110,112,114,116,118,120,122,124,126,-1,-1,-1,-1,-1,-1,-1,-1,-1,-1,-1,-1,-1,-1,-1,-1,-1,-1,-1,-1,-1,-1,-1,-1,-1,-1,-1,-1,-1,-1,-1,-1,-1,-1,-1,-1,-1,-1,-1,-1,-1,-1,-1,-1,-1,-1,-1,-1,-1,-1,-1,-1,-1,-1,-1,-1,-1,-1,-1,-1,-1,-1,-1,-1],"split_conditions":[2.4E0,1.1142857E0,4.385714E0,6.857143E-1,1.6857142E0,3.8E0,5E0,5.1428574E-1,8.9285713E-1,9.6E-1,1E0,2.2E0,5.9E0,5.4E0,9.5E-2,3E-3,4.51E-1,2.79E-1,3.97E-1,4.08E-1,5E0,1.3E0,4.8E0,1.4E1,1E0,3.3642857E0,1.12E0,3.1E0,6.3714285E0,6.1E0,5.4615383E0,3.4285715E-1,3.91E-1,5E0,4.95E-1,5E0,4.51E-1,1.655E1,1.91E1,8E-1,1.7597349E0,1.3833333E0,1.3357143E0,1.611E1,2.35E-1,1.2E0,1.6E1,1.3E-2,1E0,3.357143E0,1.7597349E0,1E0,6E0,1.24E-1,5E0,3.3E0,4.992857E0,5.0285716E0,7.3E0,7.444E1,6.3714285E0,1.951068E0,1.32E0,-2.2558343E-2,-1.8190308E-2,-1.6066518E-2,-3.6754792E-3,-1.3815224E-2,-9.500481E-3,7.95371E-2,1.1570297E-2,-9.343807E-3,-3.923436E-3,8.99041E-4,2.7615292E-2,-9.402906E-3,2.8759587E-4,-4.0038335E-3,7.65855E-2,-9.47849E-3,5.2499487E-3,4.1746568E-2,1.2314137E-1,5.767873E-3,1.3407433E-2,1.5117928E-2,2.5403654E-2,-4.7231587E-3,1.551487E-2,2.3351176E-2,3.4059398E-2,1.4738299E-2,4.094204E-2,2.418218E-1,9.445598E-2,1.2626002E-2,-7.104784E-3,3.5290495E-2,6.2194955E-2,5.1159617E-2,7.3639534E-2,7.705593E-2,1.4863096E-1,5.7537187E-2,8.2827546E-2,9.0112545E-2,1.2011974E-1,1.8609625E-1,3.7471905E-1,6.88174E-2,1.4718184E-1,5.1671963E-2,9.377395E-2,9.8038994E-2,1.2101258E-1,1.0726484E-1,1.31788E-1,1.5540332E-1,1.8845452E-1,1.6979547E-1,1.2874936E-1,1.7544107E-1,2.3927544E-1,1.1955382E-1,2.594903E-1,5.926952E-1,3.4594592E-1],"split_indices":[9,9,9,9,9,6,0,9,10,5,14,5,6,5,12,12,12,12,12,12,0,5,6,1,14,10,22,6,9,5,10,9,12,0,12,0,12,20,20,6,11,9,10,20,12,5,1,12,14,9,11,14,0,12,0,5,10,9,5,21,9,11,22,0,0,0,0,0,0,0,0,0,0,0,0,0,0,0,0,0,0,0,0,0,0,0,0,0,0,0,0,0,0,0,0,0,0,0,0,0,0,0,0,0,0,0,0,0,0,0,0,0,0,0,0,0,0,0,0,0,0,0,0,0,0,0,0],"split_type":[0,0,0,0,0,0,0,0,0,0,0,0,0,0,0,0,0,0,0,0,0,0,0,0,0,0,0,0,0,0,0,0,0,0,0,0,0,0,0,0,0,0,0,0,0,0,0,0,0,0,0,0,0,0,0,0,0,0,0,0,0,0,0,0,0,0,0,0,0,0,0,0,0,0,0,0,0,0,0,0,0,0,0,0,0,0,0,0,0,0,0,0,0,0,0,0,0,0,0,0,0,0,0,0,0,0,0,0,0,0,0,0,0,0,0,0,0,0,0,0,0,0,0,0,0,0,0],"sum_hessian":[1.46627E6,1.362415E6,1.03855E5,1.094595E6,2.6782E5,7.5153E4,2.8702E4,7.26295E5,3.683E5,1.82642E5,8.5178E4,5.6601E4,1.8552E4,2.0512E4,8.19E3,4.28079E5,2.98216E5,2.32979E5,1.35321E5,4.4911E4,1.37731E5,5.6832E4,2.8346E4,1.4522E4,4.2079E4,1.6278E4,2.274E3,1.2327E4,8.185E3,6.731E3,1.459E3,2.43314E5,1.84765E5,2.97177E5,1.039E3,2.18442E5,1.4537E4,1.34297E5,1.024E3,4.4277E4,6.34E2,9.7649E4,4.0082E4,1.0294E4,4.6538E4,2.803E4,3.16E2,4.034E3,1.0488E4,2.9909E4,1.217E4,5.639E3,1.0639E4,9.2E1,2.182E3,3.33E3,8.997E3,5.496E3,2.689E3,4.19E3,2.541E3,8.43E2,6.16E2,7.0914E4,1.724E5,1.79236E5,5.529E3,2.1241E5,8.4767E4,2.17E2,8.22E2,1.56814E5,6.1628E4,1.3356E4,1.181E3,1.475E4,1.19547E5,4.61E2,5.63E2,1.4324E4,2.9953E4,4.63E2,1.71E2,5.3561E4,4.4088E4,2.1514E4,1.8568E4,2.86E3,7.434E3,3.2555E4,1.3983E4,3.359E3,2.4671E4,5.5E1,2.61E2,2.575E3,1.459E3,8.482E3,2.006E3,1.9511E4,1.0398E4,1.0997E4,1.173E3,2.287E3,3.352E3,8.554E3,2.085E3,4.1E1,5.1E1,3.54E2,1.828E3,1.699E3,1.631E3,4.662E3,4.335E3,1.895E3,3.601E3,1.259E3,1.43E3,1.876E3,2.314E3,1.679E3,8.62E2,2.52E2,5.91E2,5.3E1,5.63E2],"tree_param":{"num_deleted":"0","num_feature":"24","num_nodes":"127","size_leaf_vector":"1"}},{"base_weights":[1.8926432E-5,-1.19919926E-1,1.6756326E0,-2.2511443E-1,3.1502312E-1,1.4046537E0,2.9559474E0,-2.9692325E-1,-8.621244E-2,2.0035146E-1,5.769672E-1,1.0687857E0,1.8801017E0,2.5436387E0,3.773431E0,-3.503623E-1,-2.4920557E-1,-1.3776463E-1,-1.0615728E-2,1.3492697E-1,3.3173677E-1,2.1059695E-1,6.33181E-1,6.0560215E-1,1.2109566E0,1.6251724E0,2.329865E0,2.423796E0,3.47432E0,3.3794374E0,4.9912972E0,-3.7247127E-1,-2.9222974E-1,-2.73266E-1,-1.8884584E-1,-1.6884628E-1,-5.8610704E-2,-4.929989E-2,8.552799E-2,-1.4449633E-2,1.8346605E-1,2.9024956E-1,6.004969E-1,-4.1348998E-2,4.5921102E-1,5.3955704E-1,8.650455E-1,3.4554487E-1,1.0001706E0,1.0470306E0,1.4428678E0,1.3957323E0,2.028587E0,2.1187959E0,3.294207E0,2.139998E0,2.6609561E0,3.0952528E0,4.103097E0,5.293599E0,3.258974E0,3.1094837E0,5.637895E0,-2.1311177E-2,-1.7712463E-2,-1.8320186E-2,-1.3644961E-2,-1.4958945E-2,-1.1636252E-2,-1.09862955E-2,-7.3208506E-3,-1.0306727E-2,-6.106694E-3,-4.2647608E-3,3.354998E-3,-1.1641077E-2,-1.7419849E-3,-1.1072273E-2,6.2787565E-3,-1.278541E-2,2.1621075E-3,5.656565E-3,1.3093786E-2,1.1040448E-2,2.0892266E-2,2.5773397E-2,8.726573E-2,-5.728641E-3,7.591152E-3,2.1168843E-2,1.3152556E-1,2.2583967E-2,3.2640215E-2,4.1021127E-2,8.575172E-2,1.348345E-2,5.6807976E-2,-1.8571526E-2,5.2589275E-2,4.6561476E-2,6.7678206E-2,6.6589154E-2,8.744816E-2,7.394516E-2,2.3368265E-2,9.7344734E-2,1.6232952E-1,9.8227106E-2,1.2459343E-1,1.518688E-1,3.888528E-1,7.8894936E-2,1.1716465E-1,1.1751723E-1,1.5006629E-1,1.6143993E-1,5.804361E-2,1.6467269E-1,2.3939846E-1,2.1798392E-1,3.9782244E-1,1.4560434E-1,1.947822E-1,2.0354903E-1,8.443003E-2,2.3511334E-1,3.656189E-1],"categories":[],"categories_nodes":[],"categories_segments":[],"categories_sizes":[],"default_left":[0,0,0,0,0,0,0,0,0,0,0,0,0,0,0,0,0,0,0,0,0,0,0,0,0,0,0,0,0,0,0,0,0,0,0,0,0,0,0,0,0,0,0,0,0,0,0,0,0,0,0,0,0,0,0,0,0,0,0,0,0,0,0,0,0,0,0,0,0,0,0,0,0,0,0,0,0,0,0,0,0,0,0,0,0,0,0,0,0,0,0,0,0,0,0,0,0,0,0,0,0,0,0,0,0,0,0,0,0,0,0,0,0,0,0,0,0,0,0,0,0,0,0,0,0,0,0],"id":10,"left_children":[1,3,5,7,9,11,13,15,17,19,21,23,25,27,29,31,33,35,37,39,41,43,45,47,49,51,53,55,57,59,61,63,65,67,69,71,73,75,77,79,81,83,85,87,89,91,93,95,97,99,101,103,105,107,109,111,113,115,117,119,121,123,125,-1,-1,-1,-1,-1,-1,-1,-1,-1,-1,-1,-1,-1,-1,-1,-1,-1,-1,-1,-1,-1,-1,-1,-1,-1,-1,-1,-1,-1,-1,-1,-1,-1,-1,-1,-1,-1,-1,-1,-1,-1,-1,-1,-1,-1,-1,-1,-1,-1,-1,-1,-1,-1,-1,-1,-1,-1,-1,-1,-1,-1,-1,-1,-1],"loss_changes":[2.9459522E5,6.2588367E4,3.3966688E4,1.0987047E4,8.0023105E3,1.2903E4,5.7550625E3,1.8515508E3,1.462979E3,1.5927422E3,1.6704746E3,3.118039E3,3.8319766E3,1.2599609E3,2.7335312E3,4.401289E2,5.5705273E2,5.490947E2,5.6608734E2,8.969165E2,6.866387E2,6.760008E2,1.5261758E3,1.1411951E3,1.3760859E3,1.9737773E3,2.4558906E3,6.726172E2,2.959619E2,9.821094E2,1.6847383E3,2.4290234E2,1.3522705E2,2.8806055E2,1.4321802E2,2.7912158E2,2.1111282E2,2.8801746E2,5.3688086E2,4.2228854E2,5.148657E2,4.727124E2,8.008142E2,7.584764E1,4.2153247E2,4.9829492E2,7.657832E2,4.0203717E2,3.132334E2,7.5248047E2,5.0784375E2,1.0506426E3,7.6382227E2,5.665547E2,2.4759238E3,5.2115234E2,5.729375E2,2.0601416E2,2.5260938E2,5.994697E2,8.897344E2,4.849485E2,1.5949766E3,0E0,0E0,0E0,0E0,0E0,0E0,0E0,0E0,0E0,0E0,0E0,0E0,0E0,0E0,0E0,0E0,0E0,0E0,0E0,0E0,0E0,0E0,0E0,0E0,0E0,0E0,0E0,0E0,0E0,0E0,0E0,0E0,0E0,0E0,0E0,0E0,0E0,0E0,0E0,0E0,0E0,0E0,0E0,0E0,0E0,0E0,0E0,0E0,0E0,0E0,0E0,0E0,0E0,0E0,0E0,0E0,0E0,0E0,0E0,0E0,0E0,0E0,0E0,0E0],"parents":[2147483647,0,0,1,1,2,2,3,3,4,4,5,5,6,6,7,7,8,8,9,9,10,10,11,11,12,12,13,13,14,14,15,15,16,16,17,17,18,18,19,19,20,20,21,21,22,22,23,23,24,24,25,25,26,26,27,27,28,28,29,29,30,30,31,31,32,32,33,33,34,34,35,35,36,36,37,37,38,38,39,39,40,40,41,41,42,42,43,43,44,44,45,45,46,46,47,47,48,48,49,49,50,50,51,51,52,52,53,53,54,54,55,55,56,56,57,57,58,58,59,59,60,60,61,61,62,62],"right_children":[2,4,6,8,10,12,14,16,18,20,22,24,26,28,30,32,34,36,38,40,42,44,46,48,50,52,54,56,58,60,62,64,66,68,70,72,74,76,78,80,82,84,86,88,90,92,94,96,98,100,102,104,106,108,110,112,114,116,118,120,122,124,126,-1,-1,-1,-1,-1,-1,-1,-1,-1,-1,-1,-1,-1,-1,-1,-1,-1,-1,-1,-1,-1,-1,-1,-1,-1,-1,-1,-1,-1,-1,-1,-1,-1,-1,-1,-1,-1,-1,-1,-1,-1,-1,-1,-1,-1,-1,-1,-1,-1,-1,-1,-1,-1,-1,-1,-1,-1,-1,-1,-1,-1,-1,-1,-1],"split_conditions":[2.4857142E0,1.1285714E0,5.2E0,6.857143E-1,1.7428571E0,3.6E0,7.1E0,4.7142857E-1,8.7857145E-1,1E0,1.2E0,1.9E0,4.385714E0,7.3E0,3.2961738E0,5E0,5E0,5E0,5E0,9.6E-1,2.9E1,1.3E0,5E0,2.2E0,3.2071428E0,4E0,5E0,4.6714287E0,4E0,1.2E0,1E0,3.1428573E-1,3E-1,1E0,1E0,1E0,1.2E0,1.608E1,1.4E1,1.611E1,1.4E0,1.6E0,1.0188696E0,1E0,2.5960593E0,2.0714285E0,7.7E1,5.0285716E0,2.4E1,5E0,1E0,2.7E1,2.2193842E0,5.5285716E0,2.6E1,4E0,4E0,2.9E1,1.8E1,2.9E1,6.25E0,2.9E1,6.3714285E0,-2.1311177E-2,-1.7712463E-2,-1.8320186E-2,-1.3644961E-2,-1.4958945E-2,-1.1636252E-2,-1.09862955E-2,-7.3208506E-3,-1.0306727E-2,-6.106694E-3,-4.2647608E-3,3.354998E-3,-1.1641077E-2,-1.7419849E-3,-1.1072273E-2,6.2787565E-3,-1.278541E-2,2.1621075E-3,5.656565E-3,1.3093786E-2,1.1040448E-2,2.0892266E-2,2.5773397E-2,8.726573E-2,-5.728641E-3,7.591152E-3,2.1168843E-2,1.3152556E-1,2.2583967E-2,3.2640215E-2,4.1021127E-2,8.575172E-2,1.348345E-2,5.6807976E-2,-1.8571526E-2,5.2589275E-2,4.6561476E-2,6.7678206E-2,6.6589154E-2,8.744816E-2,7.394516E-2,2.3368265E-2,9.7344734E-2,1.6232952E-1,9.8227106E-2,1.2459343E-1,1.518688E-1,3.888528E-1,7.8894936E-2,1.1716465E-1,1.1751723E-1,1.5006629E-1,1.6143993E-1,5.804361E-2,1.6467269E-1,2.3939846E-1,2.1798392E-1,3.9782244E-1,1.4560434E-1,1.947822E-1,2.0354903E-1,8.443003E-2,2.3511334E-1,3.656189E-1],"split_indices":[9,9,6,9,9,5,6,9,10,14,5,5,9,5,11,0,0,0,0,5,16,6,0,6,10,0,0,9,0,22,14,9,9,13,13,13,5,20,1,20,9,5,11,13,11,9,17,9,17,0,14,16,11,9,16,0,0,16,1,16,10,16,9,0,0,0,0,0,0,0,0,0,0,0,0,0,0,0,0,0,0,0,0,0,0,0,0,0,0,0,0,0,0,0,0,0,0,0,0,0,0,0,0,0,0,0,0,0,0,0,0,0,0,0,0,0,0,0,0,0,0,0,0,0,0,0,0],"split_type":[0,0,0,0,0,0,0,0,0,0,0,0,0,0,0,0,0,0,0,0,0,0,0,0,0,0,0,0,0,0,0,0,0,0,0,0,0,0,0,0,0,0,0,0,0,0,0,0,0,0,0,0,0,0,0,0,0,0,0,0,0,0,0,0,0,0,0,0,0,0,0,0,0,0,0,0,0,0,0,0,0,0,0,0,0,0,0,0,0,0,0,0,0,0,0,0,0,0,0,0,0,0,0,0,0,0,0,0,0,0,0,0,0,0,0,0,0,0,0,0,0,0,0,0,0,0,0],"sum_hessian":[1.465856E6,1.367941E6,9.7915E4,1.101528E6,2.66413E5,8.0813E4,1.7102E4,7.26134E5,3.75394E5,1.85297E5,8.1116E4,4.736E4,3.3453E4,1.1371E4,5.731E3,3.42529E5,3.83605E5,2.23191E5,1.52203E5,1.23701E5,6.1596E4,1.0791E4,7.0325E4,1.1124E4,3.6236E4,2.1354E4,1.2099E4,1.0077E4,1.294E3,4.333E3,1.398E3,2.48148E5,9.4381E4,2.74272E5,1.09333E5,1.6026E5,6.2931E4,1.08534E5,4.3669E4,3.0338E4,9.3363E4,5.3361E4,8.235E3,5.36E3,5.431E3,5.0099E4,2.0226E4,6.706E3,4.418E3,2.1233E4,1.5003E4,1.3615E4,7.739E3,9.929E3,2.17E3,4.592E3,5.485E3,8.11E2,4.83E2,2.54E2,4.079E3,3.59E2,1.039E3,6.2819E4,1.85329E5,1.9508E4,7.4873E4,1.67319E5,1.06953E5,6.3276E4,4.6057E4,8.9118E4,7.1142E4,5.1912E4,1.1019E4,7.926E3,1.00608E5,5.039E3,3.863E4,5.854E3,2.4484E4,4.9217E4,4.4146E4,3.4557E4,1.8804E4,7.667E3,5.68E2,3.887E3,1.473E3,5.344E3,8.7E1,2.8212E4,2.1887E4,1.9219E4,1.007E3,6.12E3,5.86E2,1.6E2,4.258E3,1.5414E4,5.819E3,1.1012E4,3.991E3,1.2495E4,1.12E3,7.255E3,4.84E2,7.029E3,2.9E3,2.054E3,1.16E2,1.222E3,3.37E3,2.872E3,2.613E3,7.58E2,5.3E1,2.24E2,2.59E2,1.9E2,6.4E1,2.644E3,1.435E3,2.13E2,1.46E2,6.69E2,3.7E2],"tree_param":{"num_deleted":"0","num_feature":"24","num_nodes":"127","size_leaf_vector":"1"}},{"base_weights":[3.7436665E-4,-1.1376222E-1,1.5933656E0,-2.1863388E-1,2.7900258E-1,1.3353747E0,2.8187666E0,-2.875294E-1,-9.940661E-2,1.5892847E-1,5.1634294E-1,1.0170408E0,1.7896241E0,2.4163451E0,3.6125853E0,-3.327212E-1,-2.4230872E-1,-1.5200835E-1,-3.2725897E-2,9.949604E-2,2.782756E-1,2.8411147E-1,5.934588E-1,5.467414E-1,1.1415871E0,1.6813703E0,2.8166385E0,2.3059154E0,3.3090324E0,3.207122E0,4.84243E0,-3.5365587E-1,-2.774556E-1,-2.6419753E-1,-1.8731207E-1,-1.7897159E-1,-8.43819E-2,-7.017636E-2,6.1879206E-2,-2.4807218E-2,1.458499E-1,1.9579364E-1,3.8620737E-1,-2.0695092E-2,4.086713E-1,5.053103E-1,8.0747056E-1,3.5959053E-1,1.1442604E0,9.963933E-1,1.3492279E0,1.4851305E0,2.0776885E0,2.5577273E0,4.085699E0,2.03658E0,2.530236E0,2.942498E0,3.885539E0,4.884054E0,3.054094E0,3.0400486E0,5.440932E0,-1.9737666E-2,-1.6589876E-2,-1.734346E-2,-1.296729E-2,-1.443308E-2,-1.1263309E-2,-1.0788645E-2,-7.378846E-3,-1.0368813E-2,-7.027991E-3,-8.445629E-3,-2.6873755E-3,-6.617532E-3,-1.9391734E-3,-5.3858436E-3,4.626225E-3,-1.2878087E-2,1.2531029E-3,3.8342772E-3,1.070398E-2,-2.5210571E-3,1.0932281E-2,5.7811704E-3,2.0699106E-2,-6.4351857E-3,7.158438E-3,1.9485435E-2,7.849865E-2,2.1072414E-2,3.167607E-2,3.8347732E-2,7.985319E-2,2.7596895E-2,5.361687E-3,4.476136E-2,8.710068E-2,4.3914627E-2,6.1341356E-2,6.206569E-2,8.329652E-2,1.4956465E-1,7.20013E-2,9.473302E-2,1.3583873E-1,1.15107015E-1,1.545686E-1,1.5945497E-1,2.8336295E-1,1.5918729E-1,9.689932E-2,1.1145176E-1,1.429904E-1,1.5359609E-1,6.256782E-2,2.4746807E-1,1.6614567E-1,1.8826585E-1,3.9125636E-1,1.3347916E-1,1.8455826E-1,6.513514E-2,1.9757986E-1,2.2344528E-1,3.487211E-1],"categories":[],"categories_nodes":[],"categories_segments":[],"categories_sizes":[],"default_left":[0,0,0,0,0,0,0,0,0,0,0,0,0,0,0,0,0,0,0,0,0,0,0,0,0,0,0,0,0,0,0,0,0,0,0,0,0,0,0,0,0,0,0,0,0,0,0,0,0,0,0,0,0,0,0,0,0,0,0,0,0,0,0,0,0,0,0,0,0,0,0,0,0,0,0,0,0,0,0,0,0,0,0,0,0,0,0,0,0,0,0,0,0,0,0,0,0,0,0,0,0,0,0,0,0,0,0,0,0,0,0,0,0,0,0,0,0,0,0,0,0,0,0,0,0,0,0],"id":11,"left_children":[1,3,5,7,9,11,13,15,17,19,21,23,25,27,29,31,33,35,37,39,41,43,45,47,49,51,53,55,57,59,61,63,65,67,69,71,73,75,77,79,81,83,85,87,89,91,93,95,97,99,101,103,105,107,109,111,113,115,117,119,121,123,125,-1,-1,-1,-1,-1,-1,-1,-1,-1,-1,-1,-1,-1,-1,-1,-1,-1,-1,-1,-1,-1,-1,-1,-1,-1,-1,-1,-1,-1,-1,-1,-1,-1,-1,-1,-1,-1,-1,-1,-1,-1,-1,-1,-1,-1,-1,-1,-1,-1,-1,-1,-1,-1,-1,-1,-1,-1,-1,-1,-1,-1,-1,-1,-1],"loss_changes":[2.6648603E5,5.6334535E4,3.0975984E4,8.866848E3,8.21385E3,1.1704078E4,5.4353125E3,1.3980117E3,1.3866091E3,1.3575615E3,1.733916E3,2.7874414E3,3.7035E3,1.1075E3,2.8422734E3,3.9578125E2,4.1160547E2,4.029502E2,6.176706E2,7.3621216E2,5.663496E2,9.1652344E2,1.370877E3,1.1142722E3,1.1331914E3,2.3437969E3,1.0340879E3,6.0325E2,2.5122363E2,1.0918789E3,1.5141719E3,2.2279883E2,1.180874E2,2.3289844E2,1.100686E2,1.7235693E2,1.6312454E2,2.4376672E2,2.569707E2,4.0284943E2,4.391681E2,2.0294177E2,2.0707715E2,1.2398019E2,3.767671E2,5.5332324E2,6.7711523E2,3.6845764E2,3.522815E2,6.0172266E2,5.2708984E2,1.3670273E3,1.1635078E3,3.5336914E2,7.4340625E2,5.1195703E2,5.3860156E2,1.6337549E2,2.708501E2,1.151749E3,9.5896484E2,5.5864087E2,1.5548203E3,0E0,0E0,0E0,0E0,0E0,0E0,0E0,0E0,0E0,0E0,0E0,0E0,0E0,0E0,0E0,0E0,0E0,0E0,0E0,0E0,0E0,0E0,0E0,0E0,0E0,0E0,0E0,0E0,0E0,0E0,0E0,0E0,0E0,0E0,0E0,0E0,0E0,0E0,0E0,0E0,0E0,0E0,0E0,0E0,0E0,0E0,0E0,0E0,0E0,0E0,0E0,0E0,0E0,0E0,0E0,0E0,0E0,0E0,0E0,0E0,0E0,0E0,0E0,0E0],"parents":[2147483647,0,0,1,1,2,2,3,3,4,4,5,5,6,6,7,7,8,8,9,9,10,10,11,11,12,12,13,13,14,14,15,15,16,16,17,17,18,18,19,19,20,20,21,21,22,22,23,23,24,24,25,25,26,26,27,27,28,28,29,29,30,30,31,31,32,32,33,33,34,34,35,35,36,36,37,37,38,38,39,39,40,40,41,41,42,42,43,43,44,44,45,45,46,46,47,47,48,48,49,49,50,50,51,51,52,52,53,53,54,54,55,55,56,56,57,57,58,58,59,59,60,60,61,61,62,62],"right_children":[2,4,6,8,10,12,14,16,18,20,22,24,26,28,30,32,34,36,38,40,42,44,46,48,50,52,54,56,58,60,62,64,66,68,70,72,74,76,78,80,82,84,86,88,90,92,94,96,98,100,102,104,106,108,110,112,114,116,118,120,122,124,126,-1,-1,-1,-1,-1,-1,-1,-1,-1,-1,-1,-1,-1,-1,-1,-1,-1,-1,-1,-1,-1,-1,-1,-1,-1,-1,-1,-1,-1,-1,-1,-1,-1,-1,-1,-1,-1,-1,-1,-1,-1,-1,-1,-1,-1,-1,-1,-1,-1,-1,-1,-1,-1,-1,-1,-1,-1,-1,-1,-1,-1,-1,-1,-1],"split_conditions":[2.4857142E0,1.0857143E0,5.2E0,6.571429E-1,1.6571429E0,3.6E0,7.1E0,4.7142857E-1,8.428571E-1,1E0,1.5E0,1.8E0,5.6E0,7.3E0,3.2961738E0,5E0,5E0,5E0,5E0,9.6E-1,1.3428571E0,8E-1,5E0,2.5E0,3.2E0,4.385714E0,7.3E0,4.6714287E0,4E0,7.206E-1,1E0,3.4285715E-1,3E-1,1E0,1E0,1E0,5.5E-1,8E-1,6E-1,1.611E1,1.3285714E0,6E-1,8E-1,9E-1,4.8E0,2.0714285E0,7.7E1,6.8E1,3.8E0,1E0,1E0,1.4E1,1E0,6.8E0,6E0,7.425E-1,4E0,7.3E1,1.5615E0,7.3E1,6.3714285E0,3.9E0,6.3714285E0,-1.9737666E-2,-1.6589876E-2,-1.734346E-2,-1.296729E-2,-1.443308E-2,-1.1263309E-2,-1.0788645E-2,-7.378846E-3,-1.0368813E-2,-7.027991E-3,-8.445629E-3,-2.6873755E-3,-6.617532E-3,-1.9391734E-3,-5.3858436E-3,4.626225E-3,-1.2878087E-2,1.2531029E-3,3.8342772E-3,1.070398E-2,-2.5210571E-3,1.0932281E-2,5.7811704E-3,2.0699106E-2,-6.4351857E-3,7.158438E-3,1.9485435E-2,7.849865E-2,2.1072414E-2,3.167607E-2,3.8347732E-2,7.985319E-2,2.7596895E-2,5.361687E-3,4.476136E-2,8.710068E-2,4.3914627E-2,6.1341356E-2,6.206569E-2,8.329652E-2,1.4956465E-1,7.20013E-2,9.473302E-2,1.3583873E-1,1.15107015E-1,1.545686E-1,1.5945497E-1,2.8336295E-1,1.5918729E-1,9.689932E-2,1.1145176E-1,1.429904E-1,1.5359609E-1,6.256782E-2,2.4746807E-1,1.6614567E-1,1.8826585E-1,3.9125636E-1,1.3347916E-1,1.8455826E-1,6.513514E-2,1.9757986E-1,2.2344528E-1,3.487211E-1],"split_indices":[9,9,6,9,9,5,6,9,9,14,5,5,7,5,11,0,0,0,0,5,9,6,0,7,9,9,5,9,0,23,14,9,9,13,13,13,5,5,5,20,9,5,5,5,6,9,17,17,6,14,14,1,14,7,0,23,0,17,23,17,9,7,9,0,0,0,0,0,0,0,0,0,0,0,0,0,0,0,0,0,0,0,0,0,0,0,0,0,0,0,0,0,0,0,0,0,0,0,0,0,0,0,0,0,0,0,0,0,0,0,0,0,0,0,0,0,0,0,0,0,0,0,0,0,0,0,0],"split_type":[0,0,0,0,0,0,0,0,0,0,0,0,0,0,0,0,0,0,0,0,0,0,0,0,0,0,0,0,0,0,0,0,0,0,0,0,0,0,0,0,0,0,0,0,0,0,0,0,0,0,0,0,0,0,0,0,0,0,0,0,0,0,0,0,0,0,0,0,0,0,0,0,0,0,0,0,0,0,0,0,0,0,0,0,0,0,0,0,0,0,0,0,0,0,0,0,0,0,0,0,0,0,0,0,0,0,0,0,0,0,0,0,0,0,0,0,0,0,0,0,0,0,0,0,0,0,0],"sum_hessian":[1.465668E6,1.367676E6,9.7992E4,1.079453E6,2.88223E5,8.0951E4,1.7041E4,6.84128E5,3.95325E5,1.91395E5,9.6828E4,4.7598E4,3.3353E4,1.1311E4,5.73E3,3.4217E5,3.41958E5,2.20992E5,1.74333E5,1.2777E5,6.3625E4,2.4139E4,7.2689E4,9.967E3,3.7631E4,3.0175E4,3.178E3,1.0069E4,1.242E3,4.312E3,1.418E3,2.48161E5,9.4009E4,2.44602E5,9.7356E4,1.57996E5,6.2996E4,1.24893E5,4.944E4,3.4705E4,9.3065E4,3.6066E4,2.7559E4,7.003E3,1.7136E4,5.1486E4,2.1203E4,7.591E3,2.376E3,2.2149E4,1.5482E4,2.0185E4,9.99E3,2.642E3,5.36E2,4.58E3,5.489E3,7.63E2,4.79E2,3.58E2,3.954E3,3.55E2,1.063E3,8.6156E4,1.62005E5,1.9448E4,7.4561E4,1.50207E5,9.4395E4,5.6723E4,4.0633E4,9.0827E4,6.7169E4,1.6756E4,4.624E4,4.1902E4,8.2991E4,7.566E3,4.1874E4,6.123E3,2.8582E4,4.6217E4,4.6848E4,3.063E3,3.3003E4,2.566E3,2.4993E4,4.221E3,2.782E3,1.6862E4,2.74E2,3.1129E4,2.0357E4,2.017E4,1.033E3,4.307E3,3.284E3,1.679E3,6.97E2,1.4647E4,7.502E3,1.1551E4,3.931E3,5.85E2,1.96E4,7.769E3,2.221E3,1.79E3,8.52E2,3.44E2,1.92E2,3.6E2,4.22E3,2.872E3,2.617E3,7.08E2,5.5E1,1.63E2,3.16E2,2.61E2,9.7E1,2.469E3,1.485E3,1.23E2,2.32E2,6.53E2,4.1E2],"tree_param":{"num_deleted":"0","num_feature":"24","num_nodes":"127","size_leaf_vector":"1"}},{"base_weights":[-6.289836E-4,-1.2470685E-1,1.3171245E0,-2.2926958E-1,1.577956E-1,8.97868E-1,2.0542605E0,-2.9649442E-1,-1.5507165E-1,4.3367665E-2,3.263162E-1,6.7656636E-1,1.1440146E0,1.7758199E0,3.0298889E0,-3.2806754E-1,-2.5632116E-1,-1.583652E-1,6.048421E-1,3.0671207E-3,1.4513212E-1,2.3988102E-1,4.5787936E-1,6.606281E-2,7.613809E-1,9.821463E-1,1.5021474E0,1.4882722E0,2.1544538E0,2.770515E0,4.5440645E0,-3.8539344E-1,-3.0511162E-1,-2.6846144E-1,-1.3250184E-1,-1.9397809E-1,-1.011269E-1,-2.5862494E-1,1.6050708E0,-9.387752E-2,3.3880975E-2,-8.6989455E-2,1.7365257E-1,3.6312968E-2,2.9235363E-1,3.7800792E-1,6.3051057E-1,-4.980753E-2,4.1308552E-1,6.529195E-1,1.1164917E0,7.6863724E-1,1.1229154E0,1.3893827E0,2.5773933E0,9.2789733E-1,1.6104578E0,1.9374413E0,2.8569338E0,2.515167E0,3.5830386E0,5.648437E0,3.0380602E0,-2.3604942E-2,-1.839577E-2,-1.6131489E-2,-1.28658265E-2,-1.447416E-2,-1.0865078E-2,-1.4797653E-2,1.9567718E-3,-1.163078E-2,-7.9397E-3,-6.5043583E-3,-1.4213441E-3,3.0496208E-2,-1.6116025E-2,8.440458E-2,-2.2213401E-2,-9.199533E-3,-1.6152828E-4,-2.7165518E-4,4.726283E-3,-6.461502E-3,8.0326825E-2,7.5227665E-3,1.8004924E-2,-7.7252323E-3,8.589475E-3,1.4138425E-2,6.0503274E-2,1.6262494E-2,2.5924778E-2,2.827469E-2,4.5031246E-2,3.3387772E-3,-1.08822035E-2,1.4079711E-2,3.4545753E-2,2.8782452E-2,4.2925313E-2,4.993531E-2,1.334565E-1,3.956225E-2,1.2500181E-2,5.715823E-2,1.8266985E-2,5.769789E-2,8.135086E-2,2.9568022E-1,1.1528566E-1,3.478623E-2,7.782259E-2,7.564646E-2,9.956386E-2,8.339548E-2,1.1306625E-1,1.3536602E-1,2.650514E-1,1.17301166E-1,1.5233193E-1,1.4411063E-1,1.9436131E-1,3.4212002E-1,2.1070305E-1,2.3822355E-1,1.0848445E-1],"categories":[],"categories_nodes":[],"categories_segments":[],"categories_sizes":[],"default_left":[0,0,0,0,0,0,0,0,0,0,0,0,0,0,0,0,0,0,0,0,0,0,0,0,0,0,0,0,0,0,0,0,0,0,0,0,0,0,0,0,0,0,0,0,0,0,0,0,0,0,0,0,0,0,0,0,0,0,0,0,0,0,0,0,0,0,0,0,0,0,0,0,0,0,0,0,0,0,0,0,0,0,0,0,0,0,0,0,0,0,0,0,0,0,0,0,0,0,0,0,0,0,0,0,0,0,0,0,0,0,0,0,0,0,0,0,0,0,0,0,0,0,0,0,0,0,0],"id":12,"left_children":[1,3,5,7,9,11,13,15,17,19,21,23,25,27,29,31,33,35,37,39,41,43,45,47,49,51,53,55,57,59,61,63,65,67,69,71,73,75,77,79,81,83,85,87,89,91,93,95,97,99,101,103,105,107,109,111,113,115,117,119,121,123,125,-1,-1,-1,-1,-1,-1,-1,-1,-1,-1,-1,-1,-1,-1,-1,-1,-1,-1,-1,-1,-1,-1,-1,-1,-1,-1,-1,-1,-1,-1,-1,-1,-1,-1,-1,-1,-1,-1,-1,-1,-1,-1,-1,-1,-1,-1,-1,-1,-1,-1,-1,-1,-1,-1,-1,-1,-1,-1,-1,-1,-1,-1,-1,-1],"loss_changes":[2.3979436E5,3.959403E4,3.9002953E4,4.879617E3,6.982452E3,4.381715E3,1.2424703E4,6.509375E2,1.1639775E3,8.8446045E2,1.6651152E3,2.1936953E3,2.2064414E3,3.87275E3,3.976836E3,3.7807617E2,3.3949805E2,9.4381934E2,1.7337899E3,4.6148367E2,4.050266E2,9.4401025E2,8.0031055E2,2.078642E2,1.4320215E3,7.876133E2,1.4337168E3,1.3841289E3,2.3366562E3,1.7908516E3,2.4510156E3,1.2435547E2,1.7174219E2,2.2116602E2,5.6589526E2,3.8798438E2,3.739048E2,5.9834465E1,1.5897778E2,3.04357E2,2.7948712E2,4.79138E2,2.3559094E2,4.682713E2,6.177373E2,2.9405957E2,3.2199854E2,7.585584E1,4.707808E1,4.5221973E2,1.5887393E3,1.2206055E2,2.4208008E2,5.9846875E2,1.00513916E3,5.279248E2,6.140078E2,1.0211836E3,1.310832E3,5.8651953E2,4.3051172E2,1.4354316E3,9.341362E2,0E0,0E0,0E0,0E0,0E0,0E0,0E0,0E0,0E0,0E0,0E0,0E0,0E0,0E0,0E0,0E0,0E0,0E0,0E0,0E0,0E0,0E0,0E0,0E0,0E0,0E0,0E0,0E0,0E0,0E0,0E0,0E0,0E0,0E0,0E0,0E0,0E0,0E0,0E0,0E0,0E0,0E0,0E0,0E0,0E0,0E0,0E0,0E0,0E0,0E0,0E0,0E0,0E0,0E0,0E0,0E0,0E0,0E0,0E0,0E0,0E0,0E0,0E0,0E0],"parents":[2147483647,0,0,1,1,2,2,3,3,4,4,5,5,6,6,7,7,8,8,9,9,10,10,11,11,12,12,13,13,14,14,15,15,16,16,17,17,18,18,19,19,20,20,21,21,22,22,23,23,24,24,25,25,26,26,27,27,28,28,29,29,30,30,31,31,32,32,33,33,34,34,35,35,36,36,37,37,38,38,39,39,40,40,41,41,42,42,43,43,44,44,45,45,46,46,47,47,48,48,49,49,50,50,51,51,52,52,53,53,54,54,55,55,56,56,57,57,58,58,59,59,60,60,61,61,62,62],"right_children":[2,4,6,8,10,12,14,16,18,20,22,24,26,28,30,32,34,36,38,40,42,44,46,48,50,52,54,56,58,60,62,64,66,68,70,72,74,76,78,80,82,84,86,88,90,92,94,96,98,100,102,104,106,108,110,112,114,116,118,120,122,124,126,-1,-1,-1,-1,-1,-1,-1,-1,-1,-1,-1,-1,-1,-1,-1,-1,-1,-1,-1,-1,-1,-1,-1,-1,-1,-1,-1,-1,-1,-1,-1,-1,-1,-1,-1,-1,-1,-1,-1,-1,-1,-1,-1,-1,-1,-1,-1,-1,-1,-1,-1,-1,-1,-1,-1,-1,-1,-1,-1,-1,-1,-1,-1,-1],"split_conditions":[2.1285715E0,9.285714E-1,3.7285714E0,5.5714285E-1,1.3571428E0,2.7E0,5.9E0,3E-3,4.51E-1,1E0,1.8E0,1.4E1,1E0,4.6E0,1.34E-1,3.5714287E-1,2.9E-1,7.4285716E-1,5E0,8E-1,6E-1,9E-1,1E0,1.4E0,1E0,2.8E0,7.7E1,2.3E0,1E0,7.3E0,1.61E-1,2E-1,1E0,1E0,5E0,3E-3,1E0,1.4E1,1.9E0,3E-3,1.1571429E0,3.97E-1,2.9E1,9E-1,4.08E-1,2.13E-1,8.059304E-1,1.5E-2,2.1E0,2.8E0,1.7597349E0,7.7E1,2.5960593E0,2.9166667E0,6.8E-1,3.2E0,1E0,5.0285716E0,3.2961738E0,6.8E0,6.3714285E0,2.1E1,1.7E1,-2.3604942E-2,-1.839577E-2,-1.6131489E-2,-1.28658265E-2,-1.447416E-2,-1.0865078E-2,-1.4797653E-2,1.9567718E-3,-1.163078E-2,-7.9397E-3,-6.5043583E-3,-1.4213441E-3,3.0496208E-2,-1.6116025E-2,8.440458E-2,-2.2213401E-2,-9.199533E-3,-1.6152828E-4,-2.7165518E-4,4.726283E-3,-6.461502E-3,8.0326825E-2,7.5227665E-3,1.8004924E-2,-7.7252323E-3,8.589475E-3,1.4138425E-2,6.0503274E-2,1.6262494E-2,2.5924778E-2,2.827469E-2,4.5031246E-2,3.3387772E-3,-1.08822035E-2,1.4079711E-2,3.4545753E-2,2.8782452E-2,4.2925313E-2,4.993531E-2,1.334565E-1,3.956225E-2,1.2500181E-2,5.715823E-2,1.8266985E-2,5.769789E-2,8.135086E-2,2.9568022E-1,1.1528566E-1,3.478623E-2,7.782259E-2,7.564646E-2,9.956386E-2,8.339548E-2,1.1306625E-1,1.3536602E-1,2.650514E-1,1.17301166E-1,1.5233193E-1,1.4411063E-1,1.9436131E-1,3.4212002E-1,2.1070305E-1,2.3822355E-1,1.0848445E-1],"split_indices":[9,9,9,9,9,5,6,12,12,4,5,1,4,5,12,9,12,9,16,5,5,6,4,5,4,9,17,5,4,5,12,9,4,4,16,12,4,1,5,12,9,12,16,5,12,12,11,12,5,9,11,17,11,9,23,7,4,9,11,7,9,1,1,0,0,0,0,0,0,0,0,0,0,0,0,0,0,0,0,0,0,0,0,0,0,0,0,0,0,0,0,0,0,0,0,0,0,0,0,0,0,0,0,0,0,0,0,0,0,0,0,0,0,0,0,0,0,0,0,0,0,0,0,0,0,0,0],"split_type":[0,0,0,0,0,0,0,0,0,0,0,0,0,0,0,0,0,0,0,0,0,0,0,0,0,0,0,0,0,0,0,0,0,0,0,0,0,0,0,0,0,0,0,0,0,0,0,0,0,0,0,0,0,0,0,0,0,0,0,0,0,0,0,0,0,0,0,0,0,0,0,0,0,0,0,0,0,0,0,0,0,0,0,0,0,0,0,0,0,0,0,0,0,0,0,0,0,0,0,0,0,0,0,0,0,0,0,0,0,0,0,0,0,0,0,0,0,0,0,0,0,0,0,0,0,0,0],"sum_hessian":[1.466594E6,1.340386E6,1.26208E5,9.78291E5,3.62095E5,8.0452E4,4.5756E4,5.13262E5,4.65029E5,2.1566E5,1.46435E5,4.2366E4,3.8086E4,3.5599E4,1.0157E4,2.87389E5,2.25873E5,4.63023E5,2.006E3,1.54483E5,6.1177E4,8.8376E4,5.8059E4,5.168E3,3.7198E4,2.6233E4,1.1853E4,2.0236E4,1.5363E4,8.674E3,1.483E3,8.2172E4,2.05217E5,2.05703E5,2.017E4,2.8543E5,1.77593E5,1.077E3,9.29E2,3.7259E4,1.17224E5,6.694E3,5.4483E4,1.8112E4,7.0264E4,3.9696E4,1.8363E4,3.875E3,1.293E3,2.8497E4,8.701E3,1.0426E4,1.5807E4,1.073E4,1.123E3,3.624E3,1.6612E4,1.174E4,3.623E3,6.603E3,2.071E3,8.54E2,6.29E2,1.3781E4,6.8391E4,1.5017E5,5.5047E4,1.45792E5,5.9911E4,1.0331E4,9.839E3,1.36036E5,1.49394E5,1.27001E5,5.0592E4,7.3E1,1.004E3,8.93E2,3.6E1,1.8684E4,1.8575E4,7.112E4,4.6104E4,6.532E3,1.62E2,4.8456E4,6.027E3,7.52E3,1.0592E4,6.9539E4,7.25E2,2.8861E4,1.0835E4,1.4803E4,3.56E3,2.287E3,1.588E3,8.79E2,4.14E2,2.0715E4,7.782E3,8.089E3,6.12E2,9.99E3,4.36E2,1.5395E4,4.12E2,5.393E3,5.337E3,8.3E1,1.04E3,2.648E3,9.76E2,1.3229E4,3.383E3,6.411E3,5.329E3,3.416E3,2.07E2,5.013E3,1.59E3,6.3E2,1.441E3,4.64E2,3.9E2,2.09E2,4.2E2],"tree_param":{"num_deleted":"0","num_feature":"24","num_nodes":"127","size_leaf_vector":"1"}},{"base_weights":[3.421635E-4,-1.0738148E-1,1.3015647E0,-1.9506374E-1,1.9698736E-1,1.0509337E0,2.4429684E0,-2.3427868E-1,-3.254525E-2,1.05474375E-1,4.7831827E-1,8.6556876E-1,1.613607E0,2.1104422E0,3.3586779E0,-2.7749038E-1,-1.7536125E-1,-4.4243056E-2,1.4098837E0,2.967598E-2,2.2495961E-1,3.9737645E-1,8.572992E-1,1.8517613E0,8.143977E-1,1.4763966E0,2.4544072E0,2.0078974E0,2.842557E0,2.9441235E0,4.555482E0,-3.1187707E-1,-2.3361562E-1,-1.9581917E-1,-8.444337E-2,-9.711643E-2,8.286617E-2,1.1302701E0,2.9867656E0,-8.081767E-3,1.4244239E-1,1.8546124E-1,3.7963268E-1,3.2779276E-1,5.257988E-1,7.5619787E-1,1.654737E0,1.4461398E0,3.2107928E0,6.6206926E-1,1.1441957E0,1.2744541E0,1.72562E0,2.2053163E0,4.0043893E0,1.8901772E0,2.435766E0,2.8155823E0,4.7075835E-1,2.6381104E0,3.5518813E0,4.98266E0,6.082852E-1,-2.346631E-2,-1.5166412E-2,-1.2042215E-2,1.7001769E-3,-9.900172E-3,1.97444E-2,-4.4573126E-3,4.0289354E-2,-5.1002423E-3,3.3231933E-2,1.5408666E-3,1.3133287E-2,-2.0530876E-2,8.446774E-2,1.10727444E-1,1.7664456E-1,-1.3838651E-3,5.721155E-3,5.3891046E-3,1.1248225E-2,6.693907E-3,1.3646545E-2,7.74407E-3,2.129986E-2,1.3725116E-2,2.0694286E-2,2.3725828E-2,3.176873E-2,1.0797849E-2,3.9363842E-2,5.2000474E-2,1.14377834E-1,5.5759754E-2,9.422777E-2,1.4461116E-1,2.2847097E-1,2.7952495E-3,3.6236394E-2,5.2456405E-2,7.414117E-2,6.301828E-2,1.22083664E-1,8.059075E-2,9.93485E-2,9.87054E-2,1.4046681E-1,1.5762737E-1,3.0428478E-1,8.293226E-2,1.03122115E-1,1.271556E-1,5.666442E-2,1.3392924E-1,1.6656545E-1,1.0240179E-1,1.4390895E-1,2.085578E-1,1.5801628E-1,3.8432154E-1,2.3208597E-1,2.3963456E-1,-5.925706E-2],"categories":[],"categories_nodes":[],"categories_segments":[],"categories_sizes":[],"default_left":[0,0,0,0,0,0,0,0,0,0,0,0,0,0,0,0,0,0,0,0,0,0,0,0,0,0,0,0,0,0,0,0,0,0,0,0,0,0,0,0,0,0,0,0,0,0,0,0,0,0,0,0,0,0,0,0,0,0,0,0,0,0,0,0,0,0,0,0,0,0,0,0,0,0,0,0,0,0,0,0,0,0,0,0,0,0,0,0,0,0,0,0,0,0,0,0,0,0,0,0,0,0,0,0,0,0,0,0,0,0,0,0,0,0,0,0,0,0,0,0,0,0,0,0,0],"id":13,"left_children":[1,3,5,7,9,11,13,15,17,19,21,23,25,27,29,31,33,35,37,39,41,43,45,47,49,51,53,55,57,59,61,63,65,67,69,71,73,75,77,79,81,83,85,87,89,91,93,95,97,99,101,103,105,107,109,111,113,115,-1,117,119,121,123,-1,-1,-1,-1,-1,-1,-1,-1,-1,-1,-1,-1,-1,-1,-1,-1,-1,-1,-1,-1,-1,-1,-1,-1,-1,-1,-1,-1,-1,-1,-1,-1,-1,-1,-1,-1,-1,-1,-1,-1,-1,-1,-1,-1,-1,-1,-1,-1,-1,-1,-1,-1,-1,-1,-1,-1,-1,-1,-1,-1,-1,-1],"loss_changes":[2.0552433E5,3.6138508E4,3.206686E4,6.699914E3,7.796954E3,9.585953E3,6.138586E3,2.1561328E3,3.4482466E3,2.0696323E3,2.2798535E3,3.4878594E3,2.624086E3,1.1060703E3,2.6533477E3,7.370469E2,6.664922E2,1.3623936E3,7.214927E2,5.9533185E2,5.418159E2,5.471904E2,1.0533662E3,1.8751279E3,3.301664E3,9.834375E2,1.2243301E3,6.4983594E2,2.956328E2,7.336289E2,2.3255488E3,3.685293E2,4.1530664E2,3.7750488E2,2.7564966E2,5.331771E2,5.57301E2,1.205052E3,9.634277E1,2.5145822E2,1.0029303E2,3.1876465E2,1.8794043E2,1.8216553E2,1.2064844E2,1.9478027E2,5.6985693E2,3.7919824E2,3.256797E2,1.7079453E3,6.6701953E2,1.7488477E2,2.5743555E2,3.790625E2,7.626831E2,4.0316406E2,3.8860156E2,1.1903027E2,0E0,3.710586E2,3.1053125E2,1.112916E3,1.0262816E3,0E0,0E0,0E0,0E0,0E0,0E0,0E0,0E0,0E0,0E0,0E0,0E0,0E0,0E0,0E0,0E0,0E0,0E0,0E0,0E0,0E0,0E0,0E0,0E0,0E0,0E0,0E0,0E0,0E0,0E0,0E0,0E0,0E0,0E0,0E0,0E0,0E0,0E0,0E0,0E0,0E0,0E0,0E0,0E0,0E0,0E0,0E0,0E0,0E0,0E0,0E0,0E0,0E0,0E0,0E0,0E0,0E0,0E0,0E0,0E0,0E0,0E0],"parents":[2147483647,0,0,1,1,2,2,3,3,4,4,5,5,6,6,7,7,8,8,9,9,10,10,11,11,12,12,13,13,14,14,15,15,16,16,17,17,18,18,19,19,20,20,21,21,22,22,23,23,24,24,25,25,26,26,27,27,28,28,29,29,30,30,31,31,32,32,33,33,34,34,35,35,36,36,37,37,38,38,39,39,40,40,41,41,42,42,43,43,44,44,45,45,46,46,47,47,48,48,49,49,50,50,51,51,52,52,53,53,54,54,55,55,56,56,57,57,59,59,60,60,61,61,62,62],"right_children":[2,4,6,8,10,12,14,16,18,20,22,24,26,28,30,32,34,36,38,40,42,44,46,48,50,52,54,56,58,60,62,64,66,68,70,72,74,76,78,80,82,84,86,88,90,92,94,96,98,100,102,104,106,108,110,112,114,116,-1,118,120,122,124,-1,-1,-1,-1,-1,-1,-1,-1,-1,-1,-1,-1,-1,-1,-1,-1,-1,-1,-1,-1,-1,-1,-1,-1,-1,-1,-1,-1,-1,-1,-1,-1,-1,